"","Isolate2","TVClassL","WUR1","Sex","RIN"
"1",-0.0311899002514457,0.0332522464967653,0.0845506786701456,-0.00431571101722861,-0.0322950685969335
"2",-0.116789234347365,-0.0170590917500957,-0.122645434058414,0.0361028277704086,0.0181404079457851
"3",-0.364324553171095,-0.472471313968347,-0.0835791359858996,-0.1389907399572,0.238705473835969
"4",0.0388340681157789,0.206777927587879,0.261642020108186,0.144335374177863,0.0179607206076028
"5",-0.0906924463980399,0.0729695348641292,-0.118086507134913,0.0990884056129973,0.0763906855231263
"6",0.303062511381989,0.0566001038116664,-0.0664646702997738,-0.0182837955158849,-0.072466698094192
"7",0.0722818967672222,-0.113588819532643,0.182436040527674,-0.0224340619972971,0.0331231039332949
"8",0.222496857019048,0.0515547231649142,0.0597196494770923,0.109121039445854,-0.0263078271631535
"9",0.130460717407997,0.0271702292182534,-0.0244915126322096,-0.0105258545855405,0.00247835656138724
"10",0.0436901551832854,-0.175489015086922,0.0597460477054568,0.158312571336255,-0.137397980077593
"11",0.234253701791875,-0.0505100197058171,-0.267475828124535,-0.0485483217175792,0.00601867243962168
"12",0.234580479531267,-0.232442674209728,-0.208300870889401,-0.183558121780125,-0.0464239928678206
"13",-0.0285765320160705,-0.0891585286490232,-0.00558486184679442,-0.182065854014221,-0.0248398525630227
"14",-0.156746687336388,-0.302683592322819,0.00378948249641403,-0.23521160766704,-0.213336539976862
"15",-0.0571957715437086,-0.00308145344839004,-0.1208363500076,0.131059713277172,-0.103150970572115
"16",0.0300950248976832,0.0946404066771074,-0.334765739779793,0.124628451270291,0.0433175520483184
"17",0.146022700693343,0.0289270332635827,-0.161819753962845,-0.114258195206483,-0.073994104474773
"18",-0.0434271060066555,-0.100729932437464,0.0860985463828678,0.0809949550738314,0.0575307836419709
"19",0.0430342379209849,-0.0572462601490974,0.110334374718165,-0.00875170193271155,-0.178198957854026
"20",0.0192345762761241,0.100853801173957,0.0503829813716482,-0.0698586039440382,-0.00781269331223906
"21",-0.0353380003560894,-0.309555545397109,0.0612146314748403,-0.276167686398241,-0.0516753123032574
"22",-0.282947511612275,-0.0333920608479947,0.0178869117453049,0.32759445751829,-0.0601029225252017
"23",-0.0306837786850286,-0.0678042911774918,0.051854795484681,-0.146506809576734,-0.173258659411677
"24",0.0822934952757385,-0.00267598516859094,0.0552328489410112,-0.140430164115409,-0.000558930938007101
"25",-0.20195538687253,-0.254865156391224,-0.170845050743329,0.0436709091231635,-0.139562075497004
"26",-0.260809055492644,-0.111180262986961,-0.182650139761876,-0.242017690091103,-0.0560309681043273
"27",0.102341774035872,-0.292103024947628,-0.033892654054186,-0.25034033733195,0.148325133349271
"28",-0.0191205565529727,0.0948237596016352,0.0829317854463778,0.0557387314772374,-0.028745222614808
"29",0.0282823022066685,-0.0905831649597251,-0.108351797459101,-0.0377179506639357,-0.127712418387181
"30",0.125457306633573,-0.109907233281379,0.029577192840377,-0.118317481171605,-0.0441662467774762
"31",0.271209240635655,0.0372941125473123,0.113907516814167,-0.104403181567047,0.101555150631828
"32",-0.228965199413338,0.0273044499357673,-0.0636433910786835,-0.0490791270140988,-0.0643417869165168
"33",-0.242907839858271,-0.0290664580626304,0.232879120074596,-0.0269966283237983,0.0416616972541632
"34",0.199047677129289,-0.106993394758424,-0.0632612646996388,-0.0555334036759175,-0.0391513907953334
"35",-0.160618580552058,-0.302088403444666,-0.176501808154638,0.421011214772847,-0.135032200074589
"36",-0.0350688120434383,-0.036560497500396,-0.100947537792257,-0.0806388293521735,0.00171768383813236
"37",0.34082842198316,0.0548842488085128,0.121063436499541,-0.0682779805285336,0.112289565935242
"38",-0.380642896475075,0.0503151642677701,0.56707399505096,0.0875448908424517,0.0038243020916917
"39",0.368706803211888,-0.230653024363246,0.210795775351861,-0.100164203354084,0.0670096583906229
"40",0.338690585067447,-0.265329581638595,-0.293008540800083,-0.224738132057952,-0.329693149833115
"41",0.0939231756956537,-0.197313576739696,-0.144456847338111,-0.123822528186169,-0.159909734368744
"42",0.0543100147067135,-0.127048818952825,-0.14923682353828,-0.00646583293732113,-0.131524725782413
"43",0.0616059344854803,-0.237455168247193,0.0838861683950451,-0.255264924676868,-0.0419015369759155
"44",0.103127425140546,-0.180431193399629,0.0653510751459331,-0.148879093426138,-0.0818884329220307
"45",0.174549754775038,-0.179066600390282,0.0975286703025992,-0.257693929122017,0.0142401470843407
"46",-0.053667563285006,0.268907008231833,-0.169480060519568,0.00556784782457142,-0.0713861905566722
"47",0.0223283153542197,-0.0189456217891793,-0.0206681693872494,0.0586787132572942,-0.0193899905209599
"48",0.195598349383978,-0.029564316449518,0.00265189889219269,-0.0154655709124021,0.0301976748962299
"49",-0.201850050839804,-0.129176682542927,-0.28999942199401,-0.0383472245739234,-0.188572446954969
"50",0.0322354956067613,0.0106991916220104,-0.0394762947520223,0.0231926228013285,0.0174445685066775
"51",0.52429755537021,-0.0510935697711263,-0.404767464147782,-0.103049706818068,-0.0766047093700012
"52",0.103460846481054,-0.0826029118119126,-0.0412797330478965,-0.058296984013409,-0.0709010391229453
"53",0.0645225625664546,-0.0442498079553076,-0.120376274502655,0.0803163494214319,-0.0160772883870776
"54",0.00604838915850709,-0.0538853035019996,0.234050208251174,-0.0507991701293009,-0.0662799080925977
"55",0.0350104237119668,-0.0249695331852076,-0.222042628194133,0.0524947329697224,-0.017350737427238
"56",-0.0775816878631468,-0.0415948794222399,0.0730841798699352,0.180051660809897,-0.0149404906762776
"57",-0.111829068966854,0.225934651789518,0.26222145458045,0.0996224163717515,0.108469985802479
"58",-0.0557377499175924,-0.0034260625298098,0.148526397148051,0.017299659662836,-0.0106752344732258
"59",-0.194768931014252,-0.053508057245969,-0.0693339597235284,-0.13898885884337,-0.113718809873869
"60",0.03862051433855,-0.206030720038789,-0.209708309173632,-0.0626147744446193,-0.0302092490939088
"61",0.27779648365765,-0.253470452429962,-0.114676615571636,-0.267754214019523,-0.010047563072541
"62",-0.186009601990946,0.187128313191821,0.153211452809583,0.0513673574410104,-0.0586318477645838
"63",-0.0989727134176191,-0.153588795102116,-0.208927436685154,0.236884279642402,-0.202492499895544
"64",-0.21432253910718,-0.254517300033232,-0.19772652854982,-0.109819862025118,-0.0873475489353731
"65",0.0797754219590175,-0.148993941959626,-0.100710418353582,-0.281941203883656,-0.0980903903757407
"66",-0.0828493060229179,-0.065177151857167,-0.179352974357693,-0.167239329825319,-0.0729512699329874
"67",0.044015774734252,-0.0449453828961535,-0.0389117207184451,-0.207421049745801,-0.160826031913438
"68",0.000583126383939833,-0.233121645732378,-0.32585637622397,-0.259781301340391,-0.0688647464761562
"69",0.181303143518567,0.166649194035204,0.0979443157109657,-0.107173090359176,-0.0931066464776483
"70",0.303210217820283,0.197070741598642,-0.119311211406246,0.0975506973410853,-0.133256803609477
"71",0.368614824030109,-0.131096441645253,0.109617637727756,-0.219401562317692,0.0994764037103139
"72",-0.0203936107084004,0.23168268825926,0.152826383828069,0.212464511224683,0.0182131973365663
"73",-0.00915197183826491,0.0668906248445523,-0.109874376492657,-0.0795696827436666,0.110281234069768
"74",-0.32186402621265,0.524206459318703,0.239603034735974,0.742138636430972,0.409907303167039
"75",0.0102079313827731,0.0486896142573085,0.0691901277601722,-0.137678953111596,0.0112916847027759
"76",-0.0759306304520357,0.22875103575691,0.0268284438200683,0.0434974502718359,0.126657340413221
"77",-0.0092134373686611,0.0128869323483239,0.0389102798700847,0.0818973503803618,-0.13473134012985
"78",0.0936004177728875,0.0940516391536632,0.48035924518043,0.255586815583424,0.0569268631599649
"79",-0.121020421057574,0.180007432967808,-0.214131528451231,0.191329282151788,0.114640224746408
"80",0.0829070760232469,0.00676447595869634,0.18388101302692,-0.0788146735573223,0.124946687058068
"81",0.0141549073024002,-0.0306788048633109,0.00374063639678075,0.045147985948159,0.0954471374787925
"82",-0.0512445117416954,-0.226019185583823,-0.0625236531441403,-0.16195830663375,-0.213047180328807
"83",-0.108535917713774,0.220521650616831,0.124578070032914,0.202087697952763,0.0198893003155589
"84",0.190959816135544,0.0664575563680718,-0.0397970847484981,-0.209678548959333,-0.211520284120943
"85",-0.0124028673158871,0.1897246696777,0.382100314160388,0.109585978501449,0.165408639001579
"86",0.0906547074172323,-0.212834052192093,-0.0754033577027365,-0.00410483407058352,-0.0809933099822855
"87",-0.334689549261482,0.0115528174318649,-0.0515119911390493,0.0825991402358583,-0.301736405701443
"88",0.172023253536996,-0.361152696148546,-0.582429049602358,-0.0714335083640404,-0.0830406554136665
"89",0.156777565669169,-0.0422276968051678,0.050975003760353,-0.15114062352796,0.00379784076472855
"90",0.093812601063412,-0.2891453285727,0.186277992572648,-0.0132114333222034,0.028076656280545
"91",-0.113764974913185,-0.102712487292764,-0.32820864396497,-0.109510241315237,-0.220237611340828
"92",0.415088988885916,-0.0324492719133321,0.0408387417084161,-0.0822361539666904,0.0605201713205487
"93",-0.159365453028686,0.141190349581581,0.0663900618596758,-0.25202114878307,-0.172500738864556
"94",-0.0455347984286161,0.00336876372588536,-0.0451035849769652,0.00784352110315986,0.0441304927258373
"95",0.0299652340918114,-0.0566225134940884,-0.239065519119126,0.107526315996939,-0.118767028941097
"96",0.337526964667848,-0.0845371678434659,0.0860673345678308,-0.0178705882538618,0.0263839009499821
"97",0.207208620964602,-0.279195437743145,-0.12568609188562,0.0211760285648132,-0.0292517655816627
"98",0.00989035509987807,-0.0598594271219327,0.034754336983636,0.0236715018725968,0.0333110706549211
"99",0.0955212646975194,-0.117574979196367,-0.102535771951619,-0.0101917509473584,0.0114062379165289
"100",-0.00421597613557087,0.0275311370969039,0.0483487526870807,-0.0235163063818679,0.0815575691512024
"101",0.0394736064172772,-0.186548359228606,-0.0174297165198356,-0.199119242713103,-0.0104447096662047
"102",0.00305016600511473,0.00145063316474331,0.388033334216488,-0.0342535909320518,0.178864619992196
"103",-0.120587671429713,-0.284950407653314,-0.353481986423421,0.139327133300111,-0.0432102180938279
"104",-0.288425220543516,-0.0224207670285647,0.00824509805314438,-0.0224300255426845,-0.140557212270331
"105",-0.227297491887306,-0.084566295784802,-0.459666509409175,0.0106200725532179,-0.167768268318765
"106",-0.707318839388464,0.40479851781968,0.439112950966566,0.549017309637396,-0.160075138189014
"107",-0.0675886066230736,-0.41095660902754,-0.0396268506362559,-0.0976976609790331,-0.0821223624811556
"108",0.0562384017152187,-0.159260885700585,-0.0153310170118315,-0.0962500839330473,-0.0298267501282228
"109",-0.163480167536439,0.0917195052766811,0.152151739972023,0.174404016283437,0.00460866525406946
"110",-0.305973048168414,0.12202910456086,0.152596108023955,0.0645791871888995,0.0566029243113062
"111",0.0361645456144847,0.25113589480819,-0.12801749994729,0.13039328978184,-0.353960825173527
"112",-0.175829458775973,-0.0784950772360276,-0.102694176591329,0.0677909233403886,-0.119680314759319
"113",0.472785374185368,-0.163624997325478,-0.364821534922307,0.250394621767422,-0.00428772510056578
"114",-0.108230354296226,-0.27502945447488,-0.191334978192312,0.037850389092984,-0.340576949888397
"115",0.0144781288790143,0.0251405985137392,-0.0637473949651523,0.0725314705585481,-0.002118075045228
"116",-0.0146424559336212,-0.365634792666087,-0.107664643878894,-0.0588747121420231,-0.151680634147529
"117",0.0669937758278938,-0.231822094699695,-0.0341030730845513,-0.13368466318264,0.0594299237827535
"118",0.245879546253707,-0.0176418737193534,0.0633154911912861,-0.127830102218806,-0.0361953778678508
"119",-0.389865605663834,-0.351990083889206,-0.0400534716788681,-0.0110522840700073,-0.215005703248981
"120",-0.0835176683481833,-0.171966209112911,-0.118033389129947,-0.163573120679327,-0.0832895510514135
"121",0.301242105133544,-0.103331823451426,-0.00170315626138441,-0.119574551182362,0.0889129583213681
"122",0.0563054368877805,-0.283235150168101,-0.139194032868268,-0.165069301145443,-0.182915575611768
"123",0.242183286252343,-0.128727144488116,0.32771811403775,0.0226000076931888,0.153873755113036
"124",0.125034371535659,0.059269085619011,0.0748790482354804,0.0732037916793949,0.0921548458581909
"125",-0.199351715538612,-0.0528734806778336,-0.289506379574856,-0.178781040920053,-0.268952406369343
"126",0.0152366649725805,-0.133216355865375,-0.12199913709681,-0.179711408635343,-0.157695828960413
"127",-0.242275679808988,-0.065603668962708,0.0692818593479872,0.235414834812711,-0.111659577302103
"128",0.55291479302458,-0.192129765795274,-0.100198499244291,-0.133486398543438,0.0212962406963399
"129",0.264879714434076,-0.0237360725169193,0.0416083906322014,-0.265582110515825,0.059141179321433
"130",0.394666195186385,0.0119507076048103,0.00262336014881982,-0.118248675564172,0.0538934646810705
"131",0.284229711462836,0.0450541572611825,0.118886655713462,-0.031950187490476,0.136197724118624
"132",-0.142728295819778,0.180260890541161,-0.0931592632455124,0.154158431454518,-0.315979428630214
"133",0.047214334592076,-0.0417681039594393,-0.288259419635516,-0.0122454172002152,-0.18474395879574
"134",0.185834856976117,-0.0302907168780944,0.0334384823306793,-0.0126452156106471,-0.142605059155135
"135",-0.109257225887583,-0.0503425491450363,0.0897970517443922,0.0280715129237142,0.118771837938828
"136",-0.152769565932762,-0.132101766968391,0.123134246097643,-0.00690541389605338,-0.0555971211995771
"137",-0.000315171055280608,0.0291708887422506,-0.0264810955666251,-0.0249595895366383,-0.0203788921145645
"138",-0.0526168796608053,-0.162408786842163,-0.11758955926166,0.01813950979361,-0.0755937112677887
"139",0.183597316704283,-0.0313634711216124,0.102690712953088,-0.0158750958804535,0.110220738105688
"140",-0.0454157606762822,0.312076964010529,-0.036676708972605,0.26613807173499,-0.100395714708293
"141",-0.0134140490016663,-0.227930311883405,-0.260701768273829,-0.126541228044094,-0.220537543123582
"142",-0.46274216815962,-0.268597067845441,-0.0676488382156662,-0.0725480798477449,-0.208791524897046
"143",-0.0740635995702505,-0.0904023260059091,-0.164964462077424,-0.110184176047719,-0.24441415228581
"144",-0.104808643701339,0.0359855437345495,-0.147497740022091,-0.0705140744766624,-0.13012764517211
"145",0.235603760975946,-0.00489219586993952,-0.0610885172714174,-0.128992616690618,-0.036067214713428
"146",0.0686961323347179,-0.0395497905837172,-0.0338052840753982,-0.0631696363466382,-0.0433964388335837
"147",-0.180989469372511,0.0925026431237467,-0.162577511808357,0.0494481643943488,0.101354913131312
"148",-0.0265955542987819,0.168524810421242,0.115440282328277,0.0398099170928642,-0.0406189681635052
"149",0.146067674345274,-0.0845770261254576,-0.118492434481401,-0.0617913623178875,-0.0158879108339849
"150",0.326959260825151,-0.0307636553601631,-0.0447560242940103,-0.087062318169,0.0150440018798051
"151",-0.32736646955796,-0.237714992357267,0.0911469561278058,0.130581022655469,-0.128828010673092
"152",0.00457734066977332,-0.115456232681314,-0.0729863770414002,-0.143980645337936,0.00487710926343695
"153",0.586494327918404,-0.0568548894171404,-0.41092572772683,-0.08795669847065,0.204560407956021
"154",0.237477124980859,-0.000357162649774241,-0.0841413625303301,-0.0956382464382363,-0.0655430504826378
"155",0.109624533060335,0.12139753665161,0.0209847950433365,-0.149784474181671,0.116653179707281
"156",0.100565142219319,0.382929887776395,-0.0744240936100982,0.3231651381142,0.0656107780653595
"157",0.268821760152667,0.0699550599010189,0.067836682193425,-0.000849078682901758,0.0362403461817251
"158",-0.0786141071168015,-0.0489256279840003,-0.185952761860862,-0.0710519562107073,-0.122172557325871
"159",-0.172300573728477,-0.0718598537335159,0.0415589434525703,-0.0198773397941875,-0.0198711450268742
"160",0.117732770765221,-0.138561898177085,0.0012461232163254,-0.0149329949055619,-0.0118645419796976
"161",-0.321705606255343,-0.0753474347362966,-0.363283581761598,0.225373786714899,-0.00729534724212032
"162",0.122918357597054,-0.0204584062592683,-0.0376074836806109,-0.0134859580855761,0.178482143758055
"163",0.574081260702681,0.355351049914953,0.219006198335638,0.213596603648237,0.0631138650944704
"164",0.156652826763885,-0.233900006345786,-0.185195463609356,-0.0360130301054381,-0.102894199906474
"165",0.196285697644522,-0.20154461438277,0.170301058596911,0.237297126712077,0.0342109057861333
"166",0.119979245520834,-0.0820356477400224,-0.243284690836468,0.332539722803659,-0.0994932053337005
"167",0.365298019093034,0.200482755306583,0.532317981526911,-0.0124702182134657,0.0432017892952834
"168",0.173712878667687,-0.157275450623234,-0.300728550002549,-0.15942937265191,-0.0944886746877803
"169",0.138135174722444,-0.0146361732290587,0.471081004226043,-0.0518519423511805,0.0220850989452543
"170",0.474057008858205,0.0140146086891518,0.384316889340334,-0.189161357441174,0.170651383190882
"171",-0.0705636572153856,0.0715802262807194,-0.0476944247311605,-0.0617475049891154,0.0315564873983506
"172",0.165643008854201,-0.274719996553258,-0.391697953654172,-0.184189217706769,-0.132003415453846
"173",-0.0230750664678385,0.110992630732552,0.170826462601081,0.0600646737872813,0.194765293421692
"174",-0.309352047144582,0.27268511674774,0.338080889500453,0.351662375798315,0.103446355038505
"175",-0.0367308721459913,0.30923177753457,0.424483066661111,0.00489772136849943,0.142342894687157
"176",0.0202602047035775,0.041644447446469,0.119159057868815,-0.035829810205906,0.0887481336650745
"177",0.0949911712884196,0.163512541623767,0.23020622459781,0.0553326178836159,0.0893793467788243
"178",0.00285738387984401,0.00523976635202111,0.104330324296224,-0.0460857087921976,-0.00509448123919092
"179",0.0538642786183439,-0.028449502794716,-0.0486300808314119,-0.08956920681832,0.0258884918720642
"180",-0.167493627519784,-0.0541668041852387,0.0382124954083564,-0.0733453312910822,0.0225445275386571
"181",0.12211312979914,0.209439124334334,0.296876239827399,-0.193974914388829,0.138427829442505
"182",-0.119968372073772,0.106051183920274,0.0707186270234671,-0.00164148135620575,0.0694001693059145
"183",-0.365381175054837,0.442159356206243,0.238185269995514,0.430024822587381,0.295835367031576
"184",0.0285945170486969,0.0192844058146103,-0.0319495405662764,-0.251247444253947,0.0307121323119997
"185",0.00851673341593077,-0.0439592984992796,-0.0536034168763025,-0.137665049214648,0.0535439343686627
"186",-0.0350899577681272,-0.0946716711993615,0.0419244195543447,-0.0341311124869861,0.00157436128678776
"187",-0.105859597547272,0.0840177290916643,0.177662397975086,-0.0675210276384182,0.143355512645514
"188",-1.4679062620372,0.142515246843717,0.44306686142221,0.038557279544929,-0.134346434492116
"189",0.00441744414011279,0.341391183373695,0.303397577112701,0.0552284564136999,0.170348489367877
"190",-0.125944062255408,0.0230636015021105,-0.0807131851635808,-0.1053278002386,-0.0689639804320039
"191",0.128684640377817,0.0214202808147782,0.0384823664971164,-0.0988718040313216,0.19824766016221
"192",-0.0835847869490934,-0.0145503521294741,-0.00536436088271247,-0.0380093866685534,0.104313080348074
"193",0.48520154886524,0.135051650350499,0.136399319295382,0.0808646496783265,0.212224576057164
"194",0.0789420200939508,0.0445587368249387,0.166260919525288,-0.028323970519201,0.102099999534003
"195",-0.245634065577811,-0.0533037945975664,0.0189582133014405,-0.0653812279046206,0.0504219220929949
"196",0.0186942184756724,0.085295278132293,0.0409330280645295,-0.0563887808298111,0.130809668775938
"197",-0.0572153745153546,-0.145321457246124,0.132989323701991,-0.049411901367336,0.0320013642946124
"198",0.377393955545125,0.0153609648424564,-0.305181460046116,0.00627266612440433,-0.114535134543631
"199",-0.244542272937869,0.0450850758527739,-0.145454759056353,-0.160253053138034,-0.104916885673387
"200",0.0211750581800634,0.089599916819915,0.0392095377470039,0.555826278099076,0.164281488978826
"201",-0.246180243362261,0.308070430451456,-0.00636376483465072,0.0283593574253224,0.0323212069853769
"202",0.0980422128034848,0.0245599218811471,-0.102045838192261,-0.0221854943882083,0.0411100210190014
"203",-0.0671599652108894,0.0852329176566931,0.137386308361702,0.0748093974314276,0.121526334384442
"204",0.373982652691415,-0.0779467405716452,0.40041425518189,0.161954283842299,0.0845371883057981
"205",0.185484256345004,0.109102182296545,0.155946099375371,-0.0850453582907428,0.0343582204118783
"206",-0.0629222674169134,0.0342570565204581,0.122370773491902,-0.0670060909594906,0.0341668838964816
"207",-0.101729982696319,-0.114156817671242,0.0546399608318872,0.0448112946977115,0.216137707066382
"208",0.173305051421119,-0.00912154911396035,0.0512594088298464,-0.0340910033694236,-0.0183741910887455
"209",-0.048166982829199,0.201200708783394,0.0274505165040532,0.0676033747707546,-0.101013143043999
"210",-0.0263745382452314,-0.0938609136486374,-0.12145593483126,-0.0361044111225881,-0.0792856043854211
"211",0.00481842120332886,0.274831070356336,0.218847758590467,0.0905122844909577,0.121448659902618
"212",-0.863533035154478,0.317415429800182,0.445476041430439,0.59546377380554,0.249270359896534
"213",0.0493137511686283,0.152606354091045,0.144587586334524,0.0509155072646349,0.0504234738580751
"214",-0.0463120205131793,0.0235666854693776,-0.106384644820963,0.020983296993815,0.0295380594047931
"215",0.0450908974153113,0.0236595937617125,-0.142843382060133,0.063643475122197,0.0593239728534682
"216",0.220247613985539,0.118990774428102,0.147347285671818,-0.136622273467119,0.116632176491395
"217",-0.0405950340327075,0.0728226995289635,-0.361550974381139,0.0161852295937379,-0.134401719098085
"218",0.0852560943198406,0.0202127989740141,-0.0212023903479459,-0.197063666845565,0.0352317977389979
"219",0.337841249492281,0.323751084571579,0.18971634511482,-0.117769080085564,0.249391131866958
"220",0.137529828918569,0.157398164943245,0.120347980160222,-0.04941610950249,0.0825288370552093
"221",1.1235394219334,0.260517692031649,-0.141810494531369,0.0413880989133629,-0.00895644990019622
"222",-0.203939430322655,-0.0151095427316292,-0.203503625274861,-0.0960117288262756,-0.245273560588925
"223",0.213145375416078,-0.0429889880908846,0.286067824226718,-0.0784474646173582,0.0457397839510991
"224",-0.0250155982499711,-0.00799450542255034,-0.101454640893446,-0.171161671156885,0.0259434631391351
"225",0.0122734164283846,0.129620375413839,0.130786572276256,-0.0316004695349337,0.0977726336691222
"226",-0.160167301876611,0.0722709924791053,0.00143536183392811,-0.157981958393591,-0.161697396024584
"227",-0.254223212150239,0.242016000218266,0.414685745453039,0.203684986694659,0.170137746112952
"228",-2.40694896355246,0.937723207675608,0.877818124738224,1.407955297583,0.383367543511081
"229",0.00612382708024012,-0.0788823968875593,0.154635249148144,-0.193706486993046,0.0209864727725125
"230",-0.17783641721734,0.19362750934493,0.24861347876998,0.179728584404659,0.0869182350959846
"231",-0.379139884565059,0.0873895092167568,0.387312675886428,-0.274543735949832,-0.183079793642427
"232",-0.0192225738737301,-0.1043870048885,-0.112593070775936,-0.0614422956467051,-0.139975569632189
"233",0.14478797110167,0.0469828485577272,0.0673419896289879,-0.0974659388245861,0.0887660095332387
"234",0.308989880814183,0.44267392193084,0.0769198499410075,0.183902259360452,-0.166964458419065
"235",-0.238302993884894,0.29278889304323,0.221143949876977,0.135520239162962,0.196641155784866
"236",-0.713531123127763,0.272821347332152,-0.212626217476261,0.197373834005891,-0.0682306091131955
"237",0.264268259263866,0.294534291710098,0.177560985608379,0.00987015276567056,0.10208306671581
"238",-0.134003325065745,0.116307971883614,-0.10402057404265,0.198965899851438,-0.0764297441067925
"239",-0.154740428389171,0.0798114452285806,-0.581455210189909,-0.0270940934990638,-0.215150950532618
"240",-0.356382073516889,0.183057381948927,-0.1266211341957,0.0493892594556399,-0.14750053835682
"241",-0.203980878114729,-0.10626824677299,-0.0939762950163738,0.0757226713356971,0.0286000340878037
"242",0.285079878287101,0.516626719682249,0.328826574181649,-0.116812089184914,0.154232474448671
"243",-0.315663091883809,-0.425797711309282,-0.296762086076385,-0.104183628865988,0.11154781970238
"244",0.103413623844083,-0.134985122707992,0.0312043638470842,-0.0751919211004544,-0.0744228895750319
"245",1.16214290883565,-0.0024305724373222,-0.327528907547546,-0.267965741507809,0.0126082307355555
"246",0.225644193863006,-0.0827442733261585,-0.091580199535345,-0.0900371092183752,-0.0159514747522599
"247",0.577554395587977,-0.339550094961055,-0.0473675914531446,-0.0812574253131697,0.170289413224303
"248",-1.3386007970319,0.565065835701498,0.560383954860011,0.977187306558225,0.581243128046279
"249",-0.620699200059023,0.436120452539503,0.152824853310555,0.386296586106385,0.113420778711839
"250",-0.1451055233185,-0.0820956023771835,-0.296694057200067,-0.0298261768988589,-0.0898772399582116
"251",0.470853027460031,-0.00309608412236392,-0.346465127783313,0.195617880532344,-0.107627912031673
"252",-0.0673115272562383,-0.133660710694858,-0.354881319189204,-0.0367232609131012,-0.120922692122233
"253",0.137126736503114,-0.189706065227047,-0.256485870940006,0.229125142129799,0.015339023196904
"254",0.00339809071699464,-0.395683338457796,-0.207511098227684,0.0691806647769326,-0.0798843288980817
"255",0.0517185918047396,0.00786844393925851,-0.00581532373433423,-0.101799230466956,-0.00847195502613106
"256",-0.166149047564559,-0.103963557251903,-0.0910847440159293,-0.0316793632064072,-0.0171203686756106
"257",0.254799779435574,-0.548182232843919,-0.174140707861582,-0.194678899375962,-0.397620295037463
"258",-0.0828386624034755,-0.146829396923759,-0.13622482649188,-0.0153354073364491,-0.125539942765166
"259",0.0948468382012752,0.00756968971068966,0.113058360097014,0.0626831447702171,-0.0327639689430701
"260",0.128209145937735,-0.0402040674942385,0.00248125125898105,-0.099225387109775,0.0566114108682179
"261",-0.152122740792969,-0.170914586405645,-0.306816896094256,-0.0903614094537583,-0.208523199600762
"262",0.0852682358006579,-0.109546071607455,-0.144146660760129,0.0441598922856362,-0.0901290092402903
"263",0.0351766454055191,-0.0671919858030812,0.0315128909473392,-0.147711276900873,-0.156709282350491
"264",0.326130363133793,0.116331236774971,0.037555618142852,-0.158968211865857,-0.0195950976171023
"265",-0.065565851410403,-0.194580188706279,-0.128641293243786,-0.0860902291887084,-0.288131486576947
"266",0.124498298710585,-0.121692225066168,-0.349629378188507,-0.0638235044676915,-0.0117249074940958
"267",0.354341088320897,-0.131705483157097,-0.222437180121832,-0.102568904162201,-0.0954884971909416
"268",0.0177520041548987,-0.370830669001121,0.117720905356619,-0.0905205274943474,-0.0270430702022221
"269",0.00903675066312096,-0.169285787836545,-0.0188265823342405,-0.114373921889141,-0.0150282293325922
"270",0.184818180383926,-0.102655605902646,0.240802088883956,-0.247190411373871,0.0411884109130609
"271",-0.0469111794393984,-0.0850291049632268,0.185935748069851,0.116012252882136,-0.267833544485997
"272",-1.64870677180326,0.0251100125003182,0.747732051947703,1.06248667666571,-0.0052483894611434
"273",-0.0246028430706049,-0.241829921762918,0.0323552520448705,0.0547272143533749,-0.0900849840186562
"274",-1.54438309471769,0.738959475057502,0.756776579133728,1.10095478732842,0.111778568908209
"275",0.430635096645673,0.184690080663573,0.102166180272203,0.0892728712457492,0.105168392958266
"276",0.00156566310323019,-0.0200000391904289,0.0529299207183513,-0.157476603374203,-0.166885884523078
"277",-0.368503165528776,-0.00519680016020341,0.113062374172443,-0.0330434243225748,0.278931031830995
"278",-0.0324717640129087,0.0488111489975077,-0.149195256716511,-0.280102589728854,0.214681867625442
"279",0.0638261060629614,-0.0844597857685653,0.113308445899031,-0.21076493875654,0.0930954959537054
"280",0.0227337234133246,0.0838841325623919,0.306511459744942,0.0533683587070758,0.00345716944877148
"281",0.165401287766258,-0.21821458256797,-0.030757674329561,-0.135905124666175,0.168854821756174
"282",0.372481579208127,-0.245935102129788,-0.0182925712202861,0.133432604166696,0.068156543514352
"283",-0.0211282518889214,0.0635481096702238,-0.313883913619702,0.101030845924879,-0.298465208956972
"284",-0.100285586235147,-0.140579461569457,0.0577371681915692,0.124924318319607,-0.190148926832164
"285",-0.000202011260282515,0.049542077344886,0.133057407026992,0.0318006145353521,0.14085778601718
"286",-0.175383156885303,0.21888105490893,-0.352389481297877,0.305878895187011,0.131986399107856
"287",-0.120363984868526,0.0262026816883241,-0.11109257791735,0.12392567354936,-0.0536607253342524
"288",0.0532470386046656,-0.291538461003182,-0.171087428631408,-0.0141543654264142,-0.0208336270438028
"289",-0.180199041376418,-0.121990675236916,0.101413150309481,0.0664319791874566,0.0352007417092423
"290",-0.0614471925755298,-0.0564664161466095,-0.120586531513976,-0.109752795381783,-0.231924137734144
"291",0.276549533512157,-0.0542167667414328,-0.107061640850648,-0.0225347501504008,0.0406992425005328
"292",0.0680632931187482,0.0646557496723401,-0.198328689387954,-0.0787791764661599,-0.104302644471504
"293",-0.273053248310616,0.0356690746509196,-0.32519669030311,-0.249898516470696,0.00373103180607542
"294",0.116991375215261,0.00200653767493856,0.0530581007772895,0.0751860547928836,0.0390339664950825
"295",0.332106348648089,0.127380908655249,0.0859564443746619,-0.110110041850884,0.108770081393876
"296",-0.0845063983521151,-0.0221829557030735,0.0808275303761554,0.0718987728761614,0.034113876688889
"297",0.297410015395574,0.148544226177287,0.177625307442946,-0.0167651484729359,0.0349074336891746
"298",-0.14338466083748,-0.0188285120018429,0.111881029505688,0.0632190541956905,0.0552905042995687
"299",0.149843863683673,0.022715677451245,0.130284625460018,-0.114966027401507,-0.319638676370711
"300",0.01872877167874,-0.186766649488223,-0.195962653095719,0.0892822571542688,-0.0432962706474094
"301",-0.191117996869597,0.11297333533591,0.225096331967922,0.0615130343582806,0.0462601016120754
"302",0.0557375848451788,-0.0886434508939398,0.0540998623248366,-0.124537792126468,0.0120160383340914
"303",-0.00626387690037184,-0.078652097835668,0.0807036913574882,-0.0695840053296815,0.0537693558096498
"304",0.138837864897086,0.136778293697523,0.0799861009925418,0.0652578493608263,-0.000499841883621184
"305",0.156498241016603,-0.0834618739102758,-0.471195626290344,0.146783231874855,0.0697635746799585
"306",-0.436474356931661,-0.371225551074455,-0.293018368746783,0.11136904951502,0.222313133978895
"307",-0.362563833058882,0.0387764543590431,0.406208173059652,0.145496260363424,-0.0576175156449366
"308",-0.770393608678239,0.466214639725331,1.0067754862781,0.580308907357828,0.305392860294715
"309",-0.132273392120954,0.201442745713106,-0.0483002793934818,0.329770413109339,0.0851212111893979
"310",0.192385134889279,0.0558051527031915,0.151041053958404,-0.198515065068522,0.0978588282500421
"311",-0.24854518503398,-0.00484305984378839,-0.0557091167675774,0.0469649154825413,0.0591732202829315
"312",-0.0445682025068616,0.170893613744998,0.164451608778696,-0.0878069250557229,-0.0256039477205546
"313",0.0532187688116356,-0.0740890711513369,0.048757570911748,-0.0927970071372434,0.158954017952121
"314",0.377786413414273,-0.0223978124581712,-0.14788188135679,-0.153339127919952,0.103203786480664
"315",0.210305332488169,0.432085218211012,0.0625535885655924,0.103466691402173,-0.0600873254971311
"316",0.168151859891705,-0.0285474932932646,0.066246700556892,0.0469061903775224,0.0785484487214361
"317",0.206657910666838,0.0729667001304037,0.064222864056813,-0.131045244305734,0.0813791634406233
"318",0.296479558581151,-0.0439049480872255,0.0128120341586583,-0.188216564227709,0.1807208964189
"319",0.0280085174078437,0.0560804824508313,0.0474266297349925,0.0355416332918102,0.0860943173695308
"320",-0.0294658155753083,-0.134188747874709,-0.00922411913438185,-0.275201343266559,-0.327005592196792
"321",0.154890141420308,-0.153219936456511,-0.0517163233190285,-0.23962266941815,0.0412607608372408
"322",-0.0288577642798208,0.121800548291553,-0.0498664437139949,0.0555087110592438,0.00217723321529365
"323",0.312679237537176,-0.0709158722394396,-0.0367872787856558,-0.181397343593837,0.0645416336888353
"324",0.217113219746329,-0.0153677261680107,-0.0314146821544166,-0.142709059805985,-0.0234692430078914
"325",0.0917112490312791,-0.178663730837309,-0.11641363347106,0.0910835854182185,0.113385058415705
"326",0.0384256636869876,0.0902222076031504,0.0757688705654171,-0.127437632753646,0.145872086467916
"327",-0.146817136243234,0.127897827700022,0.165481905793091,0.0505937457241799,0.200611824612393
"328",0.117660698667852,0.105810779055711,0.149509940716769,-0.111380563448201,0.0111488598847231
"329",0.150936727890703,-0.0472262463351956,-0.132542137408468,-0.176294727104727,-0.0589690914032846
"330",-0.0402835209106383,0.00250127516952726,0.0325681763281598,-0.171946669743291,-0.0264842629668365
"331",0.110546116297487,-0.0573395752805332,-0.0289504007530838,0.0088220348041997,0.157844669387155
"332",-0.00761559148018105,0.111029315726068,0.0980814959272516,-0.0339160721097806,0.0576370552654425
"333",-0.163811639160466,-0.149114550903252,-0.631173541994481,-0.214249801467887,-0.0470146595551034
"334",-0.136696363404679,-0.0343232800366946,0.0763324529354836,0.106737789851564,-0.117700424633187
"335",0.0375266892280313,0.0473385986792137,0.140122506108028,0.0131719842151341,-0.0108908361370662
"336",0.10886841122117,0.108143597289655,0.0995136134199362,-0.215656194908485,0.162298392195935
"337",-0.0640578589100811,-0.00405534548116986,-0.0176345852779646,-0.102694352840937,0.0856313040578263
"338",0.0624745696969755,0.0977661881705404,0.0658604385043211,-0.0147391779161274,0.0326216184056771
"339",-0.20229220899617,0.0645256272051951,0.191916767963221,-0.167038620030187,-0.000367893036003313
"340",-0.260787040959834,-0.177645100781936,0.0568261868448343,-0.227158537086143,0.14046186596894
"341",0.235545308644254,0.134383997574917,0.215342798758946,-0.0853668820061984,0.162487626668355
"342",-0.067569507197172,0.138710471917493,0.125864746996077,0.0257577520360538,-0.012228465645142
"343",0.0540132839432602,0.244122755777549,0.0189231918603948,0.0756819838381277,0.121996398082098
"344",0.135555954557186,0.100867281479003,0.125801367257768,-0.0127554917017409,0.0569013408626237
"345",0.169358110333946,-0.0899248500264937,0.174279044340266,-0.274210872624441,0.155648605033139
"346",-0.117347146276274,-0.0343965440470422,-0.0584677986614949,-0.121038570961245,-0.10121743509564
"347",-0.028702965567163,0.225778073483875,-0.193454404105313,0.00012989116298925,-0.0783546797458837
"348",-0.0464534665455511,-0.0623065559099349,0.0279448475991751,-0.109346025657687,0.0865833566061755
"349",-0.0713164830342043,0.0951262739208985,0.160701366024643,0.136794044914124,0.0422597495882942
"350",0.0570056174633984,-0.311655484363529,0.00651836546908748,0.00271825112616164,0.181769335563502
"351",-0.362764127753153,-0.403843599961207,-0.212234360592524,-0.0371853678845079,-0.126716538508779
"352",-0.163883516937432,0.318649127642467,0.325474239503411,0.165662126900588,-0.0282543111105016
"353",-0.146558969714395,0.176490159511901,0.178432733637264,0.126224607444044,0.230181071335206
"354",-0.140938932497215,0.138573910684763,-0.0210028421031406,-0.0404280999474061,0.0282203489662324
"355",-0.0487244461039085,0.0401144600302327,0.00784116517562006,-0.100040294544197,0.194878512915897
"356",-0.0510377877177223,-0.111843812615881,-0.165648547728675,-0.307755995488365,-0.0819640855690003
"357",-0.214672827925936,-0.0682977835835705,0.0507740912578924,-0.351785245987447,0.0200071877341493
"358",0.150802921149118,-0.0475078710390253,0.00726619248428868,0.0211921680784764,0.0123963343994559
"359",0.0177387066081588,-0.135144734537063,0.0526956992177338,-0.14969119442715,-0.0977794910727707
"360",0.157122967983121,-0.0890712743666912,0.0294165207781456,0.0534961067693711,0.156461633972937
"361",0.0392089624765165,0.184115002917708,-0.131646387549652,0.36326357708473,-0.140258893423542
"362",0.0942632525980341,0.0753897840628627,-0.0707218930678894,0.18522702977142,-0.0667272430773964
"363",-0.194151222804082,-0.138103625712744,0.0991307907578259,-0.0439439622619612,0.0359912910575403
"364",-0.0316292806246936,0.0598200611672545,0.142897115520579,0.0245940839697185,0.124397078835242
"365",0.327670665364587,0.213917231467232,0.221583382093989,-0.0545303085163534,0.0416309345892693
"366",-0.0517618280314671,0.164811323652946,0.0988693624571264,0.159741453319369,0.175758897526715
"367",-0.0176590355059449,-0.00495502055128286,0.0797157470788877,-0.0998947212659373,0.136702248474286
"368",0.145662878059888,0.169369885549016,0.271157056298766,0.044314590966182,0.18672135284333
"369",-0.171836232655361,0.000438875192178941,0.0963769778778825,0.232690773484376,0.287466827163835
"370",0.364302961935925,0.0866817193515749,-0.0908175877995961,-0.0583623079849035,-0.077062802331018
"371",0.141751718459438,-0.223992322068277,0.0722850921665383,-0.132744664559683,0.0884352098537942
"372",0.102690280695051,0.0765627104815148,0.111325992435868,-0.111742996747229,0.136829592731263
"373",0.0155079612000361,-0.21279316328591,-0.0590789290254817,-0.0203163932432419,-0.0200703915231819
"374",0.234334644153716,-0.0203107499722871,-0.0523545939966168,-0.0753624049290317,0.0644842028933824
"375",-0.0603281633555629,0.183597876705706,0.375027439368782,0.156646163080612,-0.00558435806641242
"376",0.208686798116817,-0.203650393153781,-0.403510569836345,0.0272918962072811,-0.157022101047463
"377",0.0484515741043319,-0.250641362350533,-0.178840642661732,-0.093715505275852,-0.0945609015902644
"378",0.160566939106319,-0.075085675031322,-0.0797159025759746,0.0273550609152555,-0.0112885852096769
"379",0.0519576790465774,0.0265571731650793,0.028677910221961,0.0231478534100429,0.0998598298375501
"380",0.330764698978467,-0.364667830722204,-0.010255175836395,-0.0173617837010856,-0.10749704836011
"381",0.0524724952258111,-0.0705706703800608,-0.113960066409922,-0.0298520233228688,0.0291405291371876
"382",0.127098472459968,-0.00686784302357825,-0.0793537992084466,-0.0846004316315055,0.0292552509291796
"383",0.11621801560738,-0.137167766047488,-0.138113080467968,-0.0309440456637544,-0.124744559653659
"384",0.356398727906237,0.41373421187669,0.209479050364091,0.142806631864133,0.0716811734474797
"385",0.278984777152331,0.00475693363170647,-0.0130832320162996,-0.231583304482402,0.019712708277922
"386",-0.0609739412545277,-0.16539554873315,-0.255307838693155,0.315989557401822,-0.268461084993405
"387",-0.370310891037616,-0.550888933050854,0.0957190827546338,0.335145593562513,-0.0562807392629539
"388",-0.0705083973391426,-0.302397259736608,0.037647509507136,0.00730598633707683,-0.0914557113085785
"389",0.135604709239361,0.0140317994149945,0.0546221777064661,0.00880267364961177,0.0787361985869667
"390",-0.865400210404997,-0.633138880827515,-0.240847513137376,0.175948163466176,-0.184784187298569
"391",-0.146257324175689,-0.139350096991748,0.049711309114126,0.137344011766555,0.0252483319591554
"392",-0.438699655781322,0.26961707712571,0.173294007183265,0.172219455644275,0.147402117158174
"393",0.0684590989279821,0.105063771219353,0.144935589849686,-0.132918627565738,0.0176938025337223
"394",-0.0172591089778066,-0.110614689730516,-0.0718531708713932,0.0539316797953509,-0.0262535090798231
"395",-0.229501092656555,-0.0586590174567226,-0.0543255981539155,0.155476775927974,-0.147187927168742
"396",0.301973022966616,0.00444741017576062,0.0489382216713333,-0.0496459726331224,0.0522642963317632
"397",-0.240023194019508,-0.0583414049807988,0.00734882688142844,0.190150189981159,0.0441978261183117
"398",-0.329866045817577,0.109418409161662,0.159444003582607,0.155334335855946,0.0937045830108101
"399",0.0428815936285781,-0.0571561604366816,0.0127273758215497,0.00551983201984411,0.0302232306473905
"400",-0.025868143821909,-0.156640501057676,-0.145186333855046,-0.0788784774808018,-0.0875651245135981
"401",-0.677517572258398,0.272338151100724,0.356253946716577,0.406494419586554,-0.0432996759879129
"402",0.0917177348300618,0.0625010552709442,0.214523597963936,0.146725624361036,0.0390823477993671
"403",0.115886105254525,0.0512350012966908,0.11164683499693,0.078011456257362,0.0595829371119791
"404",0.205016422024933,0.0292157937400491,0.0874762078382929,-0.0618807321027996,0.0149297680166822
"405",-0.262700095969861,0.501591616966492,0.648869157126985,0.380863435450058,0.11912733211428
"406",0.16727106723965,-0.423898611394102,0.0459070339294039,0.0141560328474323,-0.00678377634389415
"407",0.0761894660026411,0.169186940735225,0.227835739737797,-0.0603218617627967,0.0776130131248639
"408",-0.435949113243725,0.247837141352699,0.273158624261478,0.538901782301393,-0.0164224378072528
"409",-0.0284624059048461,0.145949569784904,0.0240803506220563,-0.0129727148988212,-0.09677296056409
"410",-0.555420802849763,-0.349221644279287,-0.448634093368984,-0.111511838608849,0.167240828301248
"411",-0.0666703935672293,0.0215341563425601,-0.0263590655640888,-0.0607384011200462,-0.000902258387834145
"412",-0.570507644439487,0.37379313198682,0.34857481846697,-0.144207140994969,0.143646866706302
"413",0.187349293340373,0.0435149315611191,0.123583337404931,0.0415634067963226,0.092466647098053
"414",-0.0338526958828218,-0.104575842535355,-0.0245095514148194,-0.0706954986739797,-0.0447072904972287
"415",0.21865884255082,-0.0554322039835781,0.092704212246972,-0.15697434796837,0.0441470205905982
"416",-0.111747657811677,0.00258981864123855,0.156975440043965,0.031101672218428,0.20961402986476
"417",0.270693349039505,-0.275106231901114,-0.0884506915282643,-0.221779511509155,0.0510017982548213
"418",0.176019029899308,0.0829575950489527,0.111665256737902,0.0380806241657027,0.0300442015360178
"419",-0.0997399505719802,-0.198002430063247,-0.269345893681563,-0.107945725245843,0.0500875180163723
"420",0.0685418765196299,0.0412087564165334,0.0749501212051048,0.0153882028198085,0.00183035614212039
"421",-0.453890301563169,-0.255258253337867,-0.0461434734831694,0.186537755824726,0.0201414642079378
"422",0.0522413372920271,0.000299255986792473,-0.0822745213645177,0.0569606512813506,0.0552870562279279
"423",0.0401100228697774,0.0716675839562963,0.28244931401066,0.113884028599762,0.122565776942732
"424",-0.31937890749702,0.108079261180454,-0.0867888656985196,0.0198935696102381,0.0212138610451595
"425",0.017636038232496,0.0231007026809067,-0.0196016687095409,-0.125976028493196,0.0331005796517658
"426",-0.159539063987219,-0.0132459559140498,-0.0900649302119689,-0.105576310413218,-0.0323581044754034
"427",-0.280681941241311,0.238267610817169,0.222727547437802,0.31254866160368,0.116307028969707
"428",0.0851341268496189,0.07373754199847,0.122024801093465,0.0993368498985529,0.0162488801084982
"429",0.128053204450619,-0.0440536436646502,0.213792955904298,-0.0547114101868396,0.164454832609921
"430",0.183879864137478,-0.112260847784548,-0.192841911298099,0.0103993666561634,-0.193813049690951
"431",0.0590354180029607,0.0116507720215162,0.141721700560696,-0.00315350262366006,0.0390455067643336
"432",0.330262079592083,-0.0619030026190656,0.124440690948752,-0.574956929436934,0.296624494364446
"433",-0.0599449429070919,-0.0678608736120888,-0.0334071685699457,0.188684323523271,-0.0880267857546825
"434",-0.0826736250343127,-0.0928567886076933,-0.0584838687450483,0.07305581709708,0.00909589404284906
"435",0.271077514587133,-0.0417861516368161,0.160993695684604,-0.158643969293668,0.0865495624703724
"436",0.213599676982224,-0.0887953930865817,0.360253676230821,-0.192081643560633,0.105570368764568
"437",0.185035068825111,0.0182381183489059,0.339679013127377,-0.0716137783672438,0.0821310426500476
"438",-0.149067816709708,0.265109626223243,0.252717255845159,0.0823031853754132,0.0832532395073286
"439",-0.12211379152619,-0.019999090528081,-0.0388749728946266,-0.0566789003712935,0.192451323224986
"440",-0.304006847972823,-0.372951431398463,-0.293611921888873,0.0689463393489813,-0.248339749398089
"441",-0.143571346270419,0.143260483135574,-0.085360352281976,0.0171475780358346,0.00978366159482474
"442",0.00342256945406118,-0.048261330633709,-0.10302153462149,-0.0557645607047784,-0.0570032138584296
"443",0.256069419878691,0.0627406512643513,0.061328115227974,-0.0976393913806083,0.161200883928413
"444",0.00559516679649211,0.0174538841556817,-0.280846933747806,-0.291583215747139,0.179367570602633
"445",0.108256776712231,0.0225171848255329,0.00356873754995966,-0.0525574404110358,0.0990704280535961
"446",0.0850267136900557,-0.0958486943987826,-0.112377004547975,-0.212471636108756,0.0860230492176939
"447",0.142359554580471,-0.137381816142802,-0.182757151875893,-0.110544229904034,-0.0219534704084641
"448",-0.443504597181963,-0.307541581508966,-0.282575699076982,0.0257978744797424,-0.212019125605898
"449",-0.0751998308210959,-0.00459657382096954,0.0295521947221174,-0.0582400705657767,-0.0501308789917956
"450",-0.0870212949725928,-0.254561416923975,-0.155105061914369,-0.102231069907372,-0.082691436908563
"451",0.19618783449209,-0.0949294285499222,-0.0945139072357839,0.00614914265808903,0.0531205251594433
"452",-0.157860271871694,-0.0345038666282228,0.12933776783337,-0.0548662879359693,0.0831538762078565
"453",-0.18230087132193,-0.38745349726418,-0.260034559761268,-0.141711389153162,-0.260568469296012
"454",-0.191602076007627,-0.221158392690183,-0.13064361988111,-0.0926055351141918,-0.0035432091581164
"455",0.127683493215427,0.176547119870612,-0.123492752605427,0.122730265754413,-0.00675156251376069
"456",0.00521578411009967,-0.0101437587621669,-0.0914879137319581,-0.120548162447729,-0.127022848585627
"457",0.152345361615516,0.0575907558909953,-0.0345293316229617,-0.0507172840798553,-0.0648483702620797
"458",0.131073587467559,-0.0570012997454959,-0.0152976152124445,0.0269861623669794,0.0196767985994416
"459",0.00620878009058758,-0.103396967300032,-0.196741187252719,-0.027695109928979,-0.230746897130873
"460",-0.102914117369404,-0.154050427190212,-0.0607313336669107,-0.0338404541178692,-0.0229847788280618
"461",-0.00890637549228272,-0.154736439582845,-0.295790452662455,-0.134859654609651,-0.176891484517901
"462",-0.414049779315303,0.103004102236479,0.197458023092817,0.186907096569999,-0.0991970940792913
"463",-0.00517027861469074,-0.331548947475192,-0.143732233677464,-0.0937022163267614,-0.154320938037988
"464",0.232501444049228,0.0466008919704841,-0.0598217417500564,-0.0273766600612718,-0.00501703480399041
"465",-1.8845203420171,0.289230825355291,0.805903296812424,1.18355993549875,0.274350879768066
"466",0.182094066054932,-0.0922096472389061,-0.22390062536976,-0.196714619217839,-0.11992861784906
"467",0.0648224763806052,-0.0447318537569903,-0.0580272290950077,-0.316728963529273,-0.293039235982207
"468",-0.0616734373908291,-0.394705708420925,-0.0871316879597482,-0.0741072808920823,-0.013337351576672
"469",0.0118208179996541,-0.737118476605997,-0.0131168781877606,-0.348762549792428,-0.0623682097403234
"470",0.0329945683043711,-0.267501381536782,-0.137376201931882,-0.104736223561955,-0.319677202569147
"471",-0.309924579154241,-0.125160194291949,-0.215856788525775,-0.1322786535315,-0.113185283318226
"472",0.188735983046238,-0.0983737000765082,-0.113656554146225,-0.061082708540747,-0.0582289559629301
"473",0.0354245621380392,-0.0202949824359186,-0.129476006321204,-0.295026344383143,-0.0428078327641859
"474",0.0882244929828705,-0.406237987981655,-0.366652798644938,-0.112235139074934,-0.13715189225132
"475",-0.533409977508603,-0.562351255042182,-0.271240892494417,-0.335843552413831,-0.375730928809272
"476",-0.0770219255317886,-0.316014647461502,-0.450865174791929,-0.283036129030209,-0.380527310003647
"477",0.374731984195713,-0.0511322320914843,-0.0973793975948826,-0.0438828139979624,-0.0160252792391084
"478",0.0854535847722871,-0.0700032879889741,-0.0765265458720837,-0.0150898205161112,-0.0613366166401165
"479",0.0167485058935159,-0.0705082839705244,-0.115664881942165,-0.0190063766767319,-0.0649037281148771
"480",-0.0191745496099966,-0.153021811981958,-0.238082083876999,0.0101977010265232,-0.185225400649988
"481",-0.0818039984870889,-0.0844118127600486,-0.0394416771014126,0.09896385163773,-0.159502213674211
"482",0.00293146080968419,-0.250441627728916,-0.173731039770682,-0.113632573778733,-0.159078308894412
"483",-0.275114818472795,0.0984416170526832,-0.138529132333555,-0.00228808430158238,-0.00677193110675566
"484",0.0496434766432735,-0.098405514789323,0.243147248721446,-0.0190164301487524,-0.208940284597684
"485",-0.0501868646630912,-0.04381071540183,-0.32911615913794,-0.11073126231284,-0.208246542132263
"486",-0.550071154720467,-0.177002035962496,-0.753262389839017,-0.0809328559783502,-0.242939909942834
"487",-0.403581293832157,-0.0690679859716732,-0.182403326666235,-0.071766040792391,-0.0620019909363965
"488",0.226197532402987,-0.198495692711209,-0.0317039050064195,-0.106037203571115,-0.0366305047427806
"489",0.193593449509793,-0.0283125845566567,-0.139008376039237,0.131166145171885,-0.094857901063077
"490",0.0684971267309756,-0.0589059244649352,0.0176204273756954,0.0258750938053455,-0.0713815752886104
"491",0.0879897017095511,-0.0505857907427587,-0.0500103376113056,-0.0553292581015912,-0.137409665831982
"492",0.0580465189221156,-0.0814061859594795,-0.0203346386884888,-0.0033130119747573,-0.0626097677474454
"493",0.0145228084029577,0.0894384461397155,0.20926145758504,-0.073399854543663,-0.0642393465453299
"494",0.00416391581877986,-0.380003354172999,-0.131009506849144,-0.343984458773293,-0.183131199171951
"495",0.0644146953122376,-0.234554705152981,-0.294109091425383,-0.158569702339916,-0.119134458290463
"496",-0.0180798008464478,-0.346790493319217,-0.0130675485006436,0.061521142204293,-0.188807303145482
"497",0.629407395713871,-0.14351825675554,0.293705180215201,-0.452638853486005,-0.143485438575291
"498",-0.173837435094678,-0.272469162452763,-0.278354508246325,-0.0723056757228234,-0.183324246337726
"499",-0.000816061684860984,-0.323289235421049,-0.393080041067243,-0.0549114416547186,-0.182863472279109
"500",0.0388841056914039,-0.0203329571105577,-0.330955112796416,0.0324119533624041,0.0553365711981285
"501",-0.271815663275889,-0.185014959741782,-0.194018749072563,-0.255431780917091,-0.176946129330405
"502",0.254339964143368,-0.103196440546137,-0.0720953770768705,-0.39558914652426,-0.30375035826229
"503",-0.128664122361552,-0.199884224704496,-0.196647259617242,-0.223657781806698,-0.147090025265554
"504",-0.205258424829107,-0.0702690705261959,-0.237446142609359,-0.218543344713786,-0.179650566918143
"505",0.0545129041575994,-0.339659818047043,-0.289945576339562,-0.39859845716776,0.0109383980855149
"506",-0.517439978615914,-0.110456896008641,-0.115433073492495,-0.177022590128653,0.016370989499867
"507",-0.0859952908265912,-0.196687603425745,0.0227297514604796,0.00718850825627201,0.0757901555773187
"508",-0.125311565386438,-0.185239466279944,-0.184538825241687,-0.183227075567368,-0.0532773303357173
"509",-0.0705515730301221,-0.410181139027507,-0.36836535886307,-0.198800066108672,-0.115451596868175
"510",-0.0228893093914564,-0.0630030944265047,-0.16986818094049,-0.0103726395848299,-0.148377630392373
"511",-0.128592415379151,-0.126886661686594,-0.110924865051986,-0.234888378760073,-0.210800103570021
"512",-0.0289471831587133,-0.00532398324557202,-0.151327167868324,-0.0979591659975881,-0.0303832325501902
"513",-0.0354280659414756,-0.128610826325527,-0.382438614466108,0.0344178233399978,-0.229834883817933
"514",0.10532921410358,-0.173695614356785,-0.175408448645808,-0.14691406778447,-0.136971932210919
"515",-0.103606292356954,-0.330953854189131,-0.261842011423984,0.0157608212356651,-0.175458573593715
"516",0.125201208947937,-0.193679554876333,-0.142576735249625,-0.0395809716098242,-0.248224508562793
"517",-0.234719039637241,0.151841748728131,0.393478583920607,0.183023036996284,0.114731326229306
"518",-0.254954352965682,0.0894324338647936,0.297603271889887,0.0615039748982814,-0.0287783198956229
"519",-0.117325121357237,0.319146302688898,0.222482922556394,0.186989065801679,0.0305156102326948
"520",-0.0276224527074403,-0.0230705769491117,-0.0959101136672736,-0.17818974361765,0.0741811758354822
"521",0.0801633174390895,-0.0199446386796341,-0.0799574539748944,-0.183506197570987,0.0826038321472483
"522",0.31251731076334,0.340624335992666,0.193487433416697,0.244232603215391,0.193320165710931
"523",0.208301847120526,-0.0103180158407455,0.16235847831801,0.324327964039767,0.0746226538798047
"524",-0.0141256448531632,-0.0154006149234721,-0.130840038636921,0.0248184022394875,-0.0431317137193936
"525",-0.136604566300262,-0.221428195394602,-0.13427132474783,-0.103401119984567,-0.234449711052359
"526",0.0919528017455181,-0.284125618223727,-0.534166944275958,0.0130805628494036,0.0688875706904444
"527",0.0929778670254245,-0.0415636302795342,-0.165892900105072,-0.0144282786856926,-0.0803686968014995
"528",-0.205375976132341,-0.357931731665756,-0.521429047076412,-0.224363013848094,-0.232281775331013
"529",0.153005603616931,-0.106372449407015,-0.0806111074177112,0.109295980844138,-0.0753606901029276
"530",-0.153107231991034,-0.274792837820733,-0.244243725650863,-0.0942170611633536,-0.173485940780309
"531",-0.118175274844929,-0.239172501040019,-0.323910745094541,-0.20133561125473,-0.25999232504299
"532",-0.0710716068246735,-0.115844250803674,-0.123720484924663,-0.0657867785220691,-0.0885651007459623
"533",0.0669042284543862,-0.293293221999056,-0.276237915838814,0.0720375237869551,-0.204495198521229
"534",0.473967455200616,-0.162487375862254,-0.000361482798016019,-0.0397081126099424,0.0169706175492123
"535",-0.0852381507250537,-0.206155838134146,-0.164718580656314,-0.0646109535642434,-0.173065842863724
"536",0.226876025011342,0.110742478809293,0.109049872240931,-0.0408806730837458,0.0553474645117823
"537",-0.105888549046042,-0.140562169686378,-0.0698782437205549,0.00881265643161319,-0.0556698690102879
"538",-0.138766294894568,0.0219473967763477,-0.0576902010015978,-0.0333687467316908,-0.0945468669772243
"539",-0.317096820646504,-0.183163445598333,-0.182251163261717,-0.108587805090633,-0.2136635394539
"540",-0.0184580412861172,-0.24748468756693,-0.147697260288524,-0.13692235609122,-0.119385348584738
"541",0.272817768205019,0.105454286368203,0.0682700003902386,-0.146800121058439,0.105267138309631
"542",-0.0328546522438234,0.0653777224909841,0.0440382725734317,0.00635072681109411,-0.109730775051653
"543",0.138475671107294,0.0629422023516588,0.142478419474482,-0.0480040414828586,0.108472157478745
"544",0.342042379105637,-0.0353985750899624,0.269097396804317,-0.156855619368515,0.0181029585042849
"545",0.232281709978059,-0.111202877756141,0.255179731386779,-0.0382014340577517,0.0410431381259236
"546",0.352168820073718,-0.135203791363211,-0.0107861919783841,-0.160479152156231,0.0693413276921962
"547",-0.184700943320488,-0.0128719766353618,0.119727115170397,0.0049336711790709,0.0819047088612968
"548",-0.27673821284883,-0.24587891066812,-0.0995245027924184,-0.158559962434225,-0.128304828069727
"549",-0.400613118371519,0.000652360180952883,0.311529890136591,0.262913757933467,0.0147113121957972
"550",-0.026898305107565,-0.282897830165932,-0.192719546080533,0.0388964334058405,-0.0756355595932044
"551",0.0375839981977832,-0.0224089885256894,-0.0935668184284174,-0.0909267839988111,0.0276326928320861
"552",-0.01072623733526,0.0358422962209811,0.00985715502939136,-0.0986463255682767,0.00537672991036567
"553",0.0615014949350954,0.0564222037725998,0.0261595703408001,-0.0200904608455398,0.0244990183411067
"554",-0.466619511987911,0.0461644991446242,-0.728848814733633,-0.108669965274783,0.0208557254354088
"555",-0.224388518584926,-0.0796295632956157,0.0566199916378819,0.0864483980790064,-0.0960609660664436
"556",-0.00662215162317743,0.00221515371480782,0.122030733616608,-0.0512870314715783,0.114729488211019
"557",0.0644022356930801,0.116250747597938,0.19469384223847,-0.0181172735143921,0.116462032125085
"558",-0.157918207410879,-0.00618831638170169,-0.194562000231431,0.0055303915833051,-0.14081300603223
"559",-0.589455587659229,0.0285083940788714,0.0246192933965809,0.282618450427188,-0.0918816604785478
"560",-0.123293476982012,-0.110833764590821,0.129670830380852,-0.269367474071746,-0.144217603454851
"561",0.938988007117253,0.492976135454489,-0.771160645845234,0.601460536397403,-0.172412225562254
"562",0.0507313302244084,-0.0223058387775908,-0.0848544937645651,-0.0545615878504199,-0.0212893335522694
"563",0.151306266339899,-0.0809607965935019,0.042230478282829,-0.259348823524878,-0.00217300666276315
"564",-0.095245128711357,0.0335993053444267,-0.108694967976452,0.0458148838157385,-0.109476243737235
"565",0.0498158780412199,0.0100456584721448,0.129660397729028,-0.057051134097263,0.117819479351802
"566",-0.061963768862137,0.0223275479723079,-0.0595967594925645,0.0824810461335599,0.02296420433545
"567",-0.0655850309083491,-0.0389628111477629,-0.0567793343598746,-0.0826222882764434,0.0138485165514744
"568",-0.237217970394491,0.339614252377073,0.356637503708072,0.448019643014002,0.032950345103685
"569",-1.28958210437661,0.457744089452246,0.710022881510695,1.08416316021343,0.155766244521377
"570",0.124156374147739,0.0729878726537187,0.184812672599625,-0.0408433292359309,0.0841934347343063
"571",0.0803211162277139,-0.169053573298832,0.0491445411352903,-0.254143506386608,0.251348551875192
"572",-0.0733633241502422,-0.0672211913778722,0.0845174941033295,-0.172508398319928,0.0826694518243306
"573",0.195422092663602,-0.217908279215095,-0.187044810357081,-0.00492912048284877,-0.0995986199721136
"574",-0.844261726382118,0.114699218633724,0.54641311270925,0.456046945570221,-0.11186225740272
"575",0.0419102179584337,-0.250561494704284,-0.0495004942397911,-0.178817510431216,-0.0953237420077938
"576",0.354580000285727,0.29017686841756,0.0135613420301013,-0.302687817654294,0.0196683697079613
"577",-0.197392991397638,-0.248146645242973,0.00702674255020081,-0.086800099293709,-0.035751143305106
"578",0.318221730241631,-0.170801371837301,0.0220057283644618,-0.0497319774768817,0.0157671461081208
"579",0.0883496548065445,0.119380854124907,0.217924249839859,-0.0651820665950507,0.150983504292362
"580",0.141233336699305,0.054717037587382,0.0410796630621335,-0.0809782117471806,0.128878281085381
"581",-0.137387537275398,-0.0928050394581763,-0.147554679777044,-0.19582130224435,-0.108087889633496
"582",0.138691090760816,-0.163911837713118,-0.149897806775416,-0.000273542668608185,-0.100067163669772
"583",0.0989038371716226,-0.163361476402898,-0.0971164670313368,-0.175222165539193,-0.147409319303891
"584",0.000847686574023708,-0.0789707610650414,-0.0295651299114197,-0.195542899411034,-0.105284820164868
"585",0.0544489500452517,-0.0274875277021988,0.00461938864535347,0.101410939636203,-0.11553563577716
"586",-0.0904833257634207,-0.0689874492299861,-0.212552075158555,-0.0612111610763264,-0.216460098001137
"587",-0.218763652313882,-0.0547066209985528,-0.1670463345995,-0.0054890945037044,-0.0358989225705043
"588",-0.13221708217406,-0.00352886126966936,0.235280784328588,0.225501497859232,-0.132705989829842
"589",0.160420180122359,-0.100625026894912,-0.105170360335197,-0.208443522597599,-0.150327194833146
"590",0.392042351511119,0.0766377835281467,0.0188255045232653,-0.184855211403061,0.100962024269914
"591",0.0343864760760508,-0.104836606161937,-0.0786985711976334,-0.129952863358617,0.272577287424458
"592",0.120501660733697,0.0343112895024012,-0.00497918549412077,0.00987870481103822,-0.0193408117744697
"593",0.207040884056615,-0.146382885288114,-0.0619877377838527,0.0171900664247288,-0.0211466620236774
"594",0.0284710242572475,-0.019737351883634,-0.160487024128917,0.0380051374233386,-0.399582758249544
"595",-0.0599574477860317,0.0762972776469658,0.0319268778362865,-0.0680510085010268,0.00595833883051103
"596",-0.0210728772039775,-0.0706979339088068,-0.0862524822990973,-0.0125741225998665,-0.0539382974558374
"597",0.101749095194956,-0.121674354881107,0.0288041659473119,-0.0777932854355012,0.0392887312191817
"598",0.185747091442931,-0.298687734016039,-0.149540730066771,-0.183769475356223,-0.0407423583018027
"599",0.0286034008079367,-0.136158595410996,-0.27917862086758,0.0855941631320008,-0.180035512093782
"600",-0.154088497568498,-0.133549769046374,-0.0535760180960091,-0.0325174652281307,0.110179950019707
"601",-0.153103628329047,0.0742354771865092,0.0731897495185059,0.442421931394363,0.119349261043726
"602",0.0931279170301439,-0.170647057621603,-0.0637222617079101,-0.0819917958036696,-0.0864245393237021
"603",-0.116995702549552,0.0160777509784862,-0.131750764876093,-0.194278580188293,-0.228971177590065
"604",0.169625793811506,-0.286576129891853,0.0672835315143287,-0.0881325585759233,-0.0701464362335877
"605",-0.16189189522149,-0.199705968286423,-0.160463579783719,-0.139293907772485,-0.133853961825864
"606",0.183995619846971,-0.153544251998973,-0.0691214119614144,0.0071952344961152,-0.0237530209353207
"607",0.0265857829991818,0.0898626404176679,-0.00249512578000037,-0.112988937563445,-0.0163406269404422
"608",0.188727749324639,0.0264103815304158,0.0382516163049338,-0.057554655933514,-0.00155041087237075
"609",0.166160323921032,-0.209764679363965,-0.0718717079189527,-0.0930523637518524,-0.0462546539384165
"610",0.206089980932991,0.38963860568901,0.308191538365205,0.266051125587341,-0.0277032580622972
"611",-0.556390984793357,-0.453973154778109,-0.372534853916528,0.284172563271018,0.177308440271422
"612",-0.339562863745978,0.148043973584186,0.176866440438601,0.205758542606785,0.166995309555068
"613",0.0557083695043447,0.135309737056597,-0.109898298832241,0.161689153975802,0.184547589521342
"614",-0.350760859801039,-0.0907689510278686,-0.177815328449623,-0.294285672420295,0.0111133521561266
"615",0.506692459774114,0.192299526368348,0.00638896500331762,-0.0478777888929381,0.125473634518371
"616",-0.396190330113448,-0.260793497517745,1.06880716136805,-0.0628465063183031,0.230342605539135
"617",-0.109824291188292,-0.0586416055158291,-0.0499226014058836,-0.0155187456264311,-0.0849655828377974
"618",0.146259183643004,-0.0224929231908385,-0.0719562266806523,-0.0530935924043728,-0.146557817234943
"619",0.0102715913843769,0.0663581668293809,-0.0719688978442134,-0.0354875403401956,0.0781429343913547
"620",-0.0552713277499373,-0.0765391064093273,0.149120525246487,0.0188447061343872,0.105559163270825
"621",-0.184653078485556,0.160121279025936,0.0260969027545492,-0.207545007017273,0.379504547006284
"622",0.132554975848768,0.158953188720892,0.121419543593372,-0.0389441847889951,0.0593311916188994
"623",-0.0669672749496774,0.0490670114302299,-0.239719024035125,0.0923976861566931,0.0261786434876203
"624",-0.78695121644099,0.769445375425967,0.0505432641868781,0.64616398682227,0.167117121586401
"625",0.692319621918551,-0.127402436347358,-0.0472750207595337,0.198697523149155,-0.130738880716736
"626",-0.0194754704855871,0.0314642083481962,-0.0607788156597555,-0.172055906389258,-0.0606094502766378
"627",-0.0962202492505723,-0.0642924388191657,-0.0954293953703355,-0.231147460539759,-0.0548238053730774
"628",-0.178297986600426,0.294852296768377,-0.2692292689838,0.363433181574888,0.0408399636232835
"629",-0.0644578494400876,0.0196652222484314,0.0563379790448609,-0.118739178033772,-0.0210594938431746
"630",-0.349196615109753,0.0856283854721376,0.0886976674756977,0.0647346444812228,-0.0568344425653243
"631",-0.29351138892317,0.155406399577912,0.248747047865441,0.222930691037746,0.0861191364546674
"632",0.114354228133545,-0.188252434351011,-0.127434878397052,-0.232775260969146,-0.145344094659075
"633",-0.0245692091600362,-0.316013773993205,0.246240824591157,0.0510679143763106,-0.0530439734675588
"634",0.0785870444946462,0.136607444307832,0.116699475752781,-0.0947385187766303,0.11755421840192
"635",0.752003483714056,0.284584635072158,-0.488756074067153,0.363382374391589,-0.00703874093026556
"636",-0.157186733806775,0.0718749195618536,0.339249485604653,-0.13127269959966,0.0665364458051273
"637",0.0973105561475056,-0.0130670885324663,0.153341113229914,-0.157006508412509,0.162699338036617
"638",0.0603776424419582,0.0797639986831444,0.129614399229897,0.00103541211609438,0.055436804281908
"639",0.428179093028124,0.832189331150367,0.264715887050397,0.251609394001629,-0.0277663628956019
"640",-0.0123765024786658,-0.0776972792494534,-0.0926139248707204,-0.087328874180496,0.0336881058079938
"641",0.118615896359233,-0.102055352813154,-0.121670112850983,0.0326154835711,-0.0454252409363506
"642",-0.0560734814217923,-0.0654310119306082,-0.492892903158123,-0.495619561656125,-0.437703583592371
"643",-0.188387601788759,0.0459960653249819,0.232947299916476,0.061084697366119,0.230712080704024
"644",0.122689021906529,0.137909425114486,0.169898155527514,-0.0791248647589533,0.0930974088830316
"645",0.0706026192958685,-0.076845912999264,0.137198392317787,-0.033689014259862,0.0510517750575209
"646",0.00518424519026224,-0.111066026381902,-0.0132241814585693,0.0467808769361274,-0.139185002378571
"647",0.119369976689989,-0.0184835407235948,-0.154727981820563,-0.13167689589414,-0.0383445914312381
"648",0.10037277649397,0.033156907716648,-0.0621839763433736,-0.0993017721544989,0.0111181695720434
"649",-0.259454568201345,-0.177801687750991,0.0193061693794903,-0.019818957359383,-0.193007339042756
"650",-0.108879463217522,0.0923006203134908,0.23693685437051,0.144819833065039,0.0322476238452666
"651",0.00315765923902354,0.0385289479096127,0.192034907629146,-0.0376094750827141,0.0934413454025964
"652",0.074938026704136,-0.0836306131642868,0.0828978775295065,0.0227321416494943,0.125444953162926
"653",-0.0134064701043371,-0.13553382873539,0.116109579339282,-0.0691325956121213,0.069379357596079
"654",-1.06589196672235,-0.456072575132534,-0.414545262678161,0.430062015059608,0.295645503744477
"655",-0.367975420828013,-0.108103623703782,-0.269829716368619,-0.0918838619034146,-0.271781544113078
"656",0.164910880058795,0.127794296623861,0.197991236871793,-0.0410917738105725,0.102042333286592
"657",0.160854071283355,0.0521045917751597,0.0869196863912559,-0.11275271812369,0.102689149270713
"658",0.224025258108028,-0.00379131286120573,-0.178656343607726,-0.0738799223537209,0.0122064256732133
"659",-0.157382000557343,0.179943865930335,-0.122303270294202,0.1960279929639,-0.0360856688078827
"660",-1.5982980805421,0.491254383067648,1.41372375416479,1.14866107242471,0.0135168141115213
"661",0.308678073810916,0.154004494650157,0.125648042424814,-0.26435422628285,0.0101381386136796
"662",-0.329025251887056,0.0574635355820839,-0.0169803675542948,0.137602205534242,-0.0336274507480884
"663",-0.0941988486421812,-0.179782280675939,-0.285568513994143,-0.125042395781236,-0.0669845178402461
"664",-0.219641837581722,0.0884881674273624,-0.234076907042389,-0.341668618567106,-0.33789478357327
"665",-0.229153668318446,0.252540672083239,-0.102511917255161,-0.0305139616895792,0.035231447374536
"666",0.0381004729403614,-0.00806198114567418,0.0662075390246357,0.0247718192200709,0.193614905723017
"667",0.0871686849949873,-0.0641831579881677,0.12519187042569,0.161991929524656,-0.0237107523583502
"668",0.156943151448394,-0.167630684381146,0.07703874113695,-0.110795413532321,0.0504341407640161
"669",0.0576759278108035,0.03628915588991,-0.0638377870257505,-0.194041002876061,0.0504048061248605
"670",0.692984964672405,0.172651256411457,-0.0489167618073369,-0.0330064194483883,0.131006334994577
"671",-0.0120519180979075,-0.00891679236779055,-0.0391639077436699,0.016226239554256,0.00659736966263218
"672",0.544739685906089,0.0828990083433382,-0.240085248559162,0.471751752039028,0.0341704481046916
"673",0.0987402855890698,0.163453864909325,0.248314747679323,0.12417596350695,0.0983770507457093
"674",0.0811732219684311,-0.249248984350635,-0.248654976008491,-0.105911971299439,0.0266885313859973
"675",-0.0492731089971014,0.0141500290088989,0.0650939021896809,0.0301266573513578,0.0832744246728462
"676",0.101230143571209,0.0381794876006967,-0.00412908519312442,-0.0768714098590693,0.0391055210160906
"677",0.057908282568855,-0.00218858041023594,-0.0610025959662044,0.0854632654877028,-0.00955913442991555
"678",0.12010262462371,-0.0678856164259162,-0.264717823233765,-0.0756724983351091,-0.039182002164916
"679",0.00492500995867784,0.000429406775199166,-0.161259999318942,-0.00347663712729494,-0.0628422415667937
"680",0.0850021464014599,-0.0914598416417559,-0.0414119537890979,-0.117502859601801,-0.0661446521683207
"681",0.433872222728343,-0.130312504153684,-0.114005500580349,-0.245201797012524,0.00436645645215313
"682",-0.17151909941204,-0.0948187470295218,0.0412885100581062,0.0432826558912005,-0.0522154325749175
"683",-0.0429907687518386,-0.00926222819008293,0.0502282152822316,0.0412179591764791,-0.0125505698450388
"684",-0.671191844690183,0.134409202229356,-0.183555920946225,0.624756200222084,0.203328758427618
"685",0.137998565564693,-0.215128817600691,-0.217769535524429,-0.120314900709658,-0.120728154514642
"686",0.48157991502565,0.295070114310517,0.122277074942224,-0.258485845623433,-0.129555283643578
"687",0.0893103076198542,-0.00603383919156774,-0.0461143462490513,-0.0274222173040069,0.0313453834195635
"688",0.320383725128381,-0.16681455679954,-0.217272891469739,-0.1821117044472,-0.0614549778271355
"689",-0.0925783093002306,0.0366579188967862,0.106576620455206,0.0799639737505012,0.217603224514595
"690",-0.837177835913754,0.328368563959886,0.255199969543781,0.44960542710103,-0.475924787285402
"691",-0.0767856440392319,-0.115191291577079,-0.0443341674759245,-0.0221297572543927,-0.00530132897004424
"692",0.0642801594407455,0.064107436575317,-0.291098342225544,-0.0409471203600947,-0.198787721498133
"693",0.27319619898371,-0.0114057785490776,-0.247929495826179,-0.0890529739978336,-0.0740810307039723
"694",-0.0596581415404987,-0.198647308923583,-0.0812571259758824,-0.153508343936216,0.0138750351074767
"695",-0.00911003669268668,-0.174111037893034,-0.019398955685966,-0.0384264389162537,-0.0634546938325265
"696",0.57150299679728,-0.0513694004407263,-0.171191195372028,-0.124548827934651,-0.108344633499053
"697",-0.203476283450759,0.072981819481287,0.168884370516055,0.106221155914611,-0.0341995432866393
"698",-0.0618367954253375,0.118436272376504,0.100138814935926,0.0836912419929017,0.172159289984049
"699",0.156344471553406,0.376959661365093,0.112891750573474,0.120560063725838,0.0110489291560613
"700",-0.162735567491215,0.0798074766492897,0.154714083444981,-0.0398472182042953,-0.00832438816384689
"701",0.011989341298947,-0.0548448093122883,-0.0206361677444556,0.0211811085664525,0.0847333062777755
"702",-0.0726464685277034,0.0355316386348283,0.0355491870499312,-0.0018750379677451,-0.0153121246262804
"703",0.412676949419201,-0.0628427793734387,0.205538518525574,-0.202434459163231,0.0617776440588021
"704",-0.0127705091570531,-0.0423123839536312,-0.122542101256167,-0.0945187044671381,-0.157677623054969
"705",-0.219003541482531,-0.0486812138759324,-0.121858912729442,0.367455198704902,0.398178527311732
"706",0.106729211470015,0.0743758708358962,0.0530932002296146,0.133125444362736,0.0909441397971738
"707",-0.344026500556661,0.19120973816528,0.271936208685745,0.480148374546738,-0.01750228785235
"708",-0.0206573097186958,0.0213074135338973,0.123183229293975,-0.0751918758421163,0.00913465074783457
"709",-0.142281609056982,0.137108621397848,0.0637479327819964,-0.000709873351576391,0.218943926405323
"710",-0.0692365926551545,0.0265713646639,-0.142063784276487,-0.0701803082363761,0.041650562629718
"711",-0.296036003213302,-0.105961952272787,-0.0227588679868841,-0.0632067284642129,-0.160503207762184
"712",0.0785312963864989,-0.0878296223982174,-0.255245356314123,-0.0892525114050985,-0.259946676884951
"713",-0.191209394889134,0.0599394471079543,0.015911859877021,-0.00825885339224321,0.0410012130429516
"714",-0.0328204839437179,-0.0264043371083154,0.256908768254852,-0.0117709126490906,0.232381956123159
"715",0.130815154094182,0.0931186163543407,0.0957963530603293,-0.0980362267756927,0.0344751788928838
"716",0.184026894050851,0.0827651846769571,-0.187003600576375,-0.184516419727296,0.111619002821741
"717",-0.252231498320917,-0.0840351193136238,0.168158925493651,-0.182024456274512,-0.0707067744857698
"718",-0.01752044838402,0.201637533724834,0.192856693447955,0.040239431504275,-0.0508360042310279
"719",-0.251936133308498,0.313499418121677,0.179930489310015,0.19442187393385,0.0537166658652289
"720",-0.0351968815359575,0.0545249651512783,-0.116297980491641,-0.198231679871249,0.057367847164588
"721",-0.0288493669904382,0.0930407582355821,0.0278036265179443,-0.0535334014798333,0.0877421728377189
"722",0.295974595115072,0.238084680429516,0.212281449223078,-0.0723176638502414,0.144713028353058
"723",-0.222054391141182,0.161715640043165,0.295473625068208,0.128290698735953,0.302085512608011
"724",-0.0127880670997943,0.00372826225124787,0.0496825138997535,-0.0350121520329599,0.125759839289916
"725",0.0311235198172953,0.00884868966437261,0.0775250034007107,-0.0733661332736768,0.11301511365486
"726",0.0574191859128987,0.153420381162411,-0.140439202972879,-0.113485398515256,-0.00695882234939701
"727",-0.33611113221458,0.121807886209736,0.413606236829407,0.766658974929546,-0.0238619063926349
"728",0.0094457282687249,-0.132192632972821,0.257961712189632,-0.00103226959751418,0.246705162131638
"729",-0.0676368167479347,-0.0290782934904271,-0.00812792785980229,-0.0417617916276014,0.080741568150904
"730",0.40253810417397,-0.0828147705583558,-0.183017149032833,0.120739219199388,0.00726512275163024
"731",0.111049693183558,-0.0718081863910975,-0.0380821226097615,-0.0219674265965773,-0.0983909051128698
"732",0.216384353859727,-0.05564212832082,-0.148305339600622,0.169592461161935,0.160727337005499
"733",0.114244030302623,-0.158567626316505,-0.14476167387076,0.022942798852932,-0.055161423752795
"734",-0.0374610156009115,0.070931199165392,0.128123918762787,0.0142184605838339,0.0222081673162485
"735",-1.17543118043136,0.484837546519784,0.596337475149953,0.833520364353598,0.0731904793711793
"736",0.15950515352293,-0.0192237686792089,-0.000690379204521787,-0.083664615182521,0.130049257835096
"737",-0.0258758070894741,-0.108931045910144,0.11636914148352,-0.0122171286124396,0.135524839381222
"738",-0.0338253086708196,-0.327639850615878,-0.306458736815763,-0.175906719570074,0.0253995865970939
"739",0.105436394567966,-0.233303560492055,-0.10250210224542,0.0090965109714124,-0.0485829899575658
"740",-0.169774013570561,-0.271533797724256,-0.279371399858728,-0.0719685363342646,-0.287781306490072
"741",-0.1565044890519,-0.0150985988352028,-0.158027337076191,-0.146392017842314,-0.159915876189163
"742",0.0511732565163304,-0.0181688253872846,-0.11890495310914,-0.0645751800226779,-0.0102911924706386
"743",-0.134616038241312,-0.0844205557988845,-0.466261984726575,-0.196106485837513,-0.127667292763198
"744",-0.392836552064874,0.0832022682807018,-0.112790338524331,0.200266281162252,-0.0384254895134902
"745",0.131796564595257,0.00125860658905544,0.0439124075870393,0.00020725915217569,0.00176249818407487
"746",0.121344616377864,0.0379021813912602,0.134003298622049,-0.0724583058136669,0.0468011875093374
"747",0.064949304411975,-0.201501022014358,0.00888888617744984,-0.0207651153265428,-0.0408662946790051
"748",-0.160249255078649,-0.122362601507348,-0.241979321568129,-0.0731402305283437,-0.2447762052028
"749",0.213578765875943,-0.126505363701189,-0.19645435450624,-0.0328874937311307,-0.191249425242391
"750",-0.357438767883602,0.235578822231183,0.329220695251247,0.777677819355242,0.0851906570039175
"751",-0.138114351624601,-0.249517717354209,-0.151069996377992,-0.061694182694713,-0.229341445776684
"752",0.139755810432255,0.0322182452469494,-0.0546569812703053,-0.0569921088066162,-0.042336790255636
"753",-0.150463623679791,-0.176928926278216,-0.111097163925871,0.0126751639439717,-0.108817499579526
"754",-0.00832808377997561,-0.0736043539145092,-0.133158539774636,0.0556923040440037,-0.0281190821794749
"755",-0.0234249530843924,-0.374684922667207,-0.274016142991352,0.0630074848830501,0.075631215871594
"756",-0.419295440255867,-0.110786272831868,-0.0199767377527935,0.119304301805199,-0.180657980480638
"757",0.0908549343865645,-0.480173698202037,0.0502649836129445,-0.0623439814592489,0.0127345405949946
"758",-0.0139538819559736,0.205947227150886,0.190966704127856,-0.160202962966315,-0.0182366314764562
"759",-0.0812786312603752,-0.137975795140723,-0.171813669066973,-0.0761553084708217,-0.0824562858111073
"760",-0.293626674048218,-0.392016791646251,-0.0614828460213965,0.027131523526065,0.138458551168155
"761",-0.113361180381544,0.245286626593141,0.339848206643118,-0.0529575310113726,0.0704348984549471
"762",0.413423740992283,0.142722924484953,0.160371174179909,-0.115835120992417,0.0911646601472865
"763",-0.283641536912682,-0.0496863691598486,-0.195879360445652,-0.289164159743448,0.0839540213597366
"764",-0.281751675463657,0.105356343377574,-0.18421182527379,0.128777342271094,-0.0356151192111782
"765",0.0358280490723233,-0.132696293423288,-0.0993332923702378,0.132033886647185,0.0496980066154998
"766",0.323296092594228,0.120163269805314,0.000387835789036463,-0.0507750996486212,0.107467350888712
"767",-0.013517176661831,0.128869002136686,-0.00149100607155768,0.120047262482627,0.0739147894063661
"768",-0.221255756233046,-0.244289466825085,0.0552809793843846,0.0689470633090596,0.18132984634385
"769",-0.0353648353583054,0.176891112301352,0.110070753289301,0.130475349416397,0.0332407429696437
"770",0.415595565827317,-0.149265649549948,0.164375885158327,-0.00586118965346503,-0.179130277988489
"771",0.235744341250838,0.0525220951180127,0.0741505007199339,-0.113596199448455,0.10976385373539
"772",-0.167350854819697,0.0985070724837795,0.255002273352541,-0.132181603042739,0.0874371403612495
"773",0.129242646981103,0.0511320966442783,-0.198598238950546,0.129981561151872,0.0451530075999632
"774",0.405415808607358,0.0271632848959841,-0.122532426150078,0.12315722107704,-0.0744605723919226
"775",-0.164309313914684,0.122589636734054,0.110539441185643,0.228453534864495,0.157098531103474
"776",0.36125188933037,0.148963636973867,0.0960523583262745,-0.0754801992450704,0.112185738988453
"777",0.261471082388359,0.0793065530840257,0.21068344896681,-0.0721906781205864,0.270164917958281
"778",0.16807718079684,-0.0835382893083068,-0.0452424259067601,0.0321249234100424,0.00720988168882056
"779",0.142499925419029,0.126321700501354,0.229653912964698,-0.0902954463651555,0.110615435934208
"780",-0.187753998049581,0.418494704320155,0.383721259433528,0.453194105333129,-0.0945825018712459
"781",0.0996633243480907,-0.0131814680407274,0.0348459886754186,-0.166444014252334,0.0320162308335382
"782",0.0995730807158663,0.0235446619601051,-0.0531182557299104,-0.172862010780494,0.00870856689332433
"783",-0.0323582177420301,-0.225740569751507,-0.42022593638255,-0.166845246196826,-0.363573573522367
"784",-0.167120250134225,0.111747808281743,0.0210163570566814,0.213607880544392,0.020294573289057
"785",-0.569095103710886,0.127281108144421,0.465756717610165,0.16607594693266,-0.0973021240743495
"786",-0.29465479389033,-0.050953526510648,-0.0359626917139886,0.300630342830729,-0.120275438949152
"787",0.0263493586359552,-0.00209367967710758,0.0716476298650492,-0.0236458965568027,0.184755256559162
"788",0.120803136426615,-0.0343804652413901,0.0773702385920293,-0.173881269724092,-0.0269980807559989
"789",-0.121496264041146,0.309702207180998,0.175783562535628,0.121655826078817,0.07094127164947
"790",-0.312402751367745,0.207353616680702,0.052977764435861,0.205644684201465,0.202223155185489
"791",-0.518260000327779,0.286590500885682,0.322068623742704,0.245587253639144,0.0288708288838395
"792",0.126017345625637,-0.0623731580068689,0.0173501306800493,0.0746786362570447,0.139188108597177
"793",-0.20493760805573,-0.120137967570637,0.170841629353571,-0.0845574767910269,0.198472175358068
"794",0.0997607362262279,0.137777538066714,0.207099233706374,-0.189244832188712,0.0160971859126229
"795",-0.110235582896413,0.0320715809688411,0.232620361574785,-0.10719365429796,0.0882977234586659
"796",0.0965508456730501,0.196043582302084,0.215522504714673,0.0596255883461865,0.164692192531711
"797",-0.0866035162388576,0.0686922310594334,0.078088685489703,-0.00674452280498857,-0.0506100794762343
"798",1.01152034018075,0.176171864909818,0.0937063485919099,0.0601252959235497,-0.234016105356193
"799",-0.201605261786631,-0.187646616119494,-0.349880625391757,-0.10603355661881,-0.0278834695227365
"800",-0.491676831913354,-0.480812322826229,-0.499053379799546,-0.228931166598115,-0.0741395887671687
"801",0.104593811936408,-0.0109169957148603,0.0182683269519996,-0.0386380863077279,-0.0150996401956919
"802",0.241817495727335,-0.152487046958792,0.232627285952855,0.0574917024368618,0.298850344115262
"803",0.0140702002752241,0.178446793619951,-0.14070549074936,-0.435146884829225,-0.131076422514367
"804",0.105388629770704,0.0965703700187083,0.369579214380943,8.43022672274033e-05,0.0138883062781976
"805",0.12641671046909,0.102049687194422,0.32457955974973,0.0784961280235773,0.151101403643403
"806",0.175437951504922,0.20314944723098,0.0604680978442291,-0.0033031067455333,0.0621442385092915
"807",0.263298223442877,-0.0938658673011066,-0.372448656371938,-0.234904979140555,-0.0033209834471341
"808",0.0480490917379744,0.0236787082222158,0.176530555715585,-0.120633029681195,0.00408587973996622
"809",0.0113321066642784,0.0746782011137568,0.0458503768781995,-0.175619180139009,0.0582019886915731
"810",-0.04432333219948,0.0104731464895128,-0.00346597850690392,0.0901292121102166,-0.0498402151332899
"811",-0.0651390640866863,-0.0249300860539872,0.146157225220647,-0.00987213821702152,0.0337361344547258
"812",-0.0349665309188739,-0.118470000601664,-0.132181408280298,0.0584827736121993,-0.114888920568047
"813",-0.129918894192032,-0.0744475087921918,0.10174781273867,-0.0868447416653859,0.0992139088415558
"814",0.233103502209707,-0.0777454803203706,0.0314007218522419,-0.0491422481548772,-0.030979146408612
"815",0.120002388924137,0.0693829438675794,0.0856592026545552,0.0888169945876032,0.192844575235842
"816",-0.104342082403251,0.0240594389079726,0.11760978026075,-0.0792722054889018,0.029790654435303
"817",-0.284592094604052,-0.215513175977146,-0.174254492521351,0.199762662155647,0.0343293555110491
"818",-0.031013937725295,-0.0184438818974931,0.165435221897903,0.00546854296992556,0.0824887782534691
"819",0.0203117025329955,0.177205737676832,0.159434242731897,0.109107573037417,0.128787269447698
"820",-0.00913072639573383,0.191376642509526,-0.0483388545321709,-0.0114505505612659,0.106052006775945
"821",-0.326217538252436,-0.100695293238583,0.00379830317154892,-0.105495095262178,-0.119774098977403
"822",0.0614090385595831,-0.185985256431432,0.238150624649662,-0.119414181533191,-0.114269927113115
"823",0.0459694700388023,0.137624488062542,-0.0603810772603562,0.0466660325738945,-0.0208973152271444
"824",0.126588732498584,-0.0679190638305437,0.100910546724372,-0.0923825619266987,0.101336164079174
"825",0.285202388548665,0.0167236842178677,0.0863898754922531,-0.211977587599007,0.0434106462633381
"826",-0.285816045807761,-0.324175985858844,0.226210678429334,0.111777481166348,0.247606591609329
"827",0.0607566877077176,-0.0108144338186282,-0.00471918621464484,-0.0807308107798586,-0.0880998909075631
"828",-0.0856168537882959,-0.249259517284593,0.0749829891433289,0.131964670617979,0.141865611980139
"829",-0.0359382066202209,0.0511242929460935,-0.0783711741398266,-0.127356451099034,-0.169900207538375
"830",0.0620079877731703,0.0607662803770136,0.244360443518797,-0.103248001513752,0.0683357236466041
"831",0.176566627088525,0.146492288082998,0.072839006611667,-0.0878445400412009,0.0732174007147352
"832",-0.352422867136386,0.945055711370903,-0.250559730971225,0.649717931387249,-0.293486031171473
"833",0.319391801097743,0.0597963228106333,-0.139562296449929,-0.0515605357410805,-0.0927988560806738
"834",0.262136023596807,0.13268060343206,0.0833041699149944,-0.00426160615344736,0.176403903232052
"835",0.163671223354476,0.0300144566067063,-0.00508076876280883,-0.217994784461489,-0.159453023348115
"836",0.0731108356149105,-0.034384714770093,0.325192554292887,-0.26196712381552,-0.0251182628830996
"837",-0.074011838952948,-0.230303103334631,-0.282902354445425,0.0762008759296682,-0.302377178638039
"838",-0.155699586691066,0.0239559484514424,0.457726778590141,0.0996146740509234,0.224012560720424
"839",0.0960453128653079,-0.0674604973802711,0.0717444553600113,0.0881164551127596,0.125904746483703
"840",-0.0355726417706131,0.0111600591276796,0.112910489461215,-0.00194466856351792,0.123711196431454
"841",0.121648106018145,0.127432968566319,0.158188690073347,-0.125603338863907,0.0732881561255525
"842",-0.0462915070782546,-0.0125635288599387,-0.0186192026659788,-0.096794256043453,-0.164476556574902
"843",0.214975871908629,0.114385974587374,0.3764687829019,-0.179787192207415,0.140725478167784
"844",0.193619772586039,0.00707924808459182,-0.00642646604453367,0.0162680697019997,0.05127463698035
"845",0.0502922426732031,0.13757517752566,-0.0415300029554175,-0.0694461591038844,-0.00161420976105372
"846",0.0103849884799319,0.247859722919517,0.377964886338168,0.0795369911945342,0.223783384451557
"847",0.182063718811075,0.188818028825477,0.0738173348107144,0.0411673432354589,0.0689373604174944
"848",0.0306185859807476,0.209255034757967,0.349854789170755,-0.016411718163535,0.0175393645959275
"849",0.096416898938025,0.10971299108042,-0.0134820472107984,0.152026470601379,0.0383450489291935
"850",0.073957662762085,-0.0884991286506263,0.0289340846307936,-0.0926988676553567,0.0623677055571774
"851",0.300592012582503,-0.294350369274386,0.125947478837799,-0.367795194550285,0.306494121437371
"852",0.0448009370619422,-0.0183019864111204,0.0917763983276426,-0.032159426408403,0.0421748784928749
"853",0.0278924601228402,0.246133722232967,0.0784363949448197,0.308998313561352,0.0977703283319331
"854",0.187378445203276,-0.129006800931841,-0.151092219993966,-0.205329789050887,0.0799821178753812
"855",0.231383858982686,-0.0703575578233264,0.0129758147496802,-0.0778888838627928,-0.0310445149898392
"856",0.0986973144995934,0.0930034896969131,0.126171454250286,0.0198690335805287,0.0865230377702029
"857",0.0741654917456743,0.208497939160265,0.109929266756786,0.214530661960545,0.0819818087952821
"858",0.24901280080745,-0.0922452083454098,-0.000591931439022758,-0.102204381633099,-0.0475318395265433
"859",0.0917161786651407,0.00223384351902521,0.054085463969864,0.00340778319553775,0.0635546756185285
"860",-0.306038607049972,0.0765692336381858,0.364483921498987,0.168192117899524,0.0611727551005016
"861",0.137144268969997,-0.101187363644564,-0.2870947489523,0.0704479233635365,-0.294667059578539
"862",0.179661342774272,0.161668890048885,0.146053156230261,0.0193064448052424,0.125433631479474
"863",-0.125549313321579,0.0763117740630478,0.0504330857239522,-0.00805663780768586,0.0725816231546795
"864",0.0659976111489548,-0.0467302380405856,-0.00758990897355791,-0.129275439517117,0.0813656826975404
"865",-0.250335761349512,-0.185425709998437,0.601329689629867,0.0444527381121081,-0.0165840796356599
"866",0.144198589956086,-0.174018851643183,-0.0996830873679969,-0.170304197509074,-0.0605745684310909
"867",-0.183455043456512,0.0477657071781442,-0.058378313511113,0.0522336254434372,-0.133292267238821
"868",-0.0192807631350243,-0.0928832390535233,-0.0732005127254717,0.0343814059230542,0.0553666765592694
"869",-0.0335916564108762,-0.00488467109259629,-0.0750179522131817,0.0417567884316389,-0.117852374159121
"870",-0.0519107085553796,0.263407616615052,0.086477025205536,0.287226434357716,-0.216859154951906
"871",-0.305316099409807,-0.124669523174419,-0.430051945790291,0.119219819209264,-0.294526824313527
"872",0.0669945759882897,-0.0908072211408733,0.0354239501328449,-0.165031668078977,-0.0770042820098551
"873",0.188268184960091,0.154916469053188,0.200752693982566,-0.110747520839758,0.130659625721951
"874",0.26449018063369,-0.135260248102063,-0.344563796653116,-0.162568907060162,-0.143824715531542
"875",-0.0457014074013557,0.112505869931695,-0.103387906014888,-0.0846463980042209,-0.14453105130273
"876",0.357019757883456,-0.304648502702336,-0.237793207880672,-0.187879345759422,-0.19336978756079
"877",0.555538423913725,0.00543130995444775,0.0478557859592858,0.00976263226316365,-0.0501521905675438
"878",0.158999362861966,-0.000849157009329312,0.101081443592395,-0.144150318922788,0.0383578073855878
"879",-0.126145322380386,-0.348792943338997,0.127433535196895,-0.0802106908529838,-0.202036780276452
"880",0.241159845028374,0.182381615127491,0.167194135839639,-0.0755357974275924,0.182353318156531
"881",-0.00358612650666036,-0.00229370313196365,-0.00948413476961655,-0.019216859741134,0.077165265923787
"882",-0.0215146145257146,-0.0952866408605285,-0.0412145785684451,-0.161978646318162,0.0788827255825794
"883",0.183043943813132,-0.131208661805234,0.0448746776855346,0.0447473637472255,-0.104818115517636
"884",0.0860099292513192,-0.03863413875658,0.0323519194588602,-0.0263925469631842,0.074697108120905
"885",0.0800361024466902,-0.133032862987461,-0.178439826681906,-0.0114571156598601,-0.00428047169150461
"886",0.0116104458055741,-0.0703272725296169,0.0910692307669869,0.308860538747258,-0.0344295961804913
"887",-0.680369170745439,-0.625838532931122,-0.155455281825556,0.115647365386132,0.0655959773285236
"888",-0.293799295983189,-0.0829856325586971,-0.0564350072974188,-0.0344479021286179,-0.0933369442933629
"889",0.122910290693521,0.0484927966958718,-0.109187101237515,-0.105041114130216,0.103225393296972
"890",-0.149924542715462,0.0451377891210282,0.0594031998106506,0.147478705662672,0.0471870517735107
"891",-0.174513981887687,0.164361817452156,0.0340759690324401,0.223438115987966,0.0751415168385262
"892",0.101591498059535,-0.0443101479557591,-0.0099021237856954,-0.0119703473766564,0.00362547801491576
"893",0.120129510347681,0.10020099487094,0.178084146952266,-0.0230581352745849,0.0670473414051896
"894",0.0297276824581835,0.255537375105176,0.221161629718688,-0.000577073958199483,0.131630329445563
"895",-0.166975480653874,-0.194884132695226,0.0997447512693383,-0.0456535006746812,-0.0382814920094505
"896",-0.152839915442594,-0.00613164000391799,0.127414033106805,0.0101233127805049,-0.0826711573275497
"897",-0.152189833900321,0.0180371189529981,0.00590639736533724,0.00932291943170875,0.121470912533019
"898",0.00311843498430008,0.058434633573983,-0.138561322123549,-0.0215650132357548,-0.155725352687548
"899",0.0860029116793167,-0.0541124970529404,0.0504029048733774,0.00391872461527204,0.105868607487732
"900",-0.0383813294039702,0.182084123713741,0.32665313683145,-0.0241069814142353,0.191539842491015
"901",-0.0112670237290048,0.0502319517844143,0.0422312208085928,0.105977292243302,0.0970207464045355
"902",0.0212409516010798,-0.144460267133425,0.131760582624109,0.059928204629421,0.116553411620029
"903",0.105977201712634,-0.0140048545045896,0.145160160888084,0.0198406883862186,0.121970343728947
"904",-0.11054071444305,-0.0990001266870181,-0.221969091477087,0.109227699132947,-0.129047762769961
"905",0.00871302245324995,-0.33874353709081,-0.342318147608051,-0.255589647682567,-0.0438258219678243
"906",-0.450635191364307,0.180066089786716,0.0853571290587942,0.755581304942304,0.0518204578001672
"907",-0.642332628415514,0.113956926569176,0.168608389551455,0.530249026390177,-0.0192621075312888
"908",-0.550954680291476,-0.374299070229256,-0.221765662852229,0.00170169823297406,-0.202401289688577
"909",-0.230000624217352,0.0484212960050441,-0.00397671908387299,0.198965406793506,0.0869930697651267
"910",-0.0793887500716108,0.315651357176965,-0.0853921217634574,-0.0247913150266714,0.303276844235754
"911",0.313723884372692,0.101981625663229,0.0638715353484998,0.00574333559552133,0.115146140513387
"912",0.0225788624558544,0.0214613116552015,-0.0943901643318195,-0.10379595018791,0.0506167996734061
"913",0.00139942306238057,-0.0891576578588616,0.182975658086281,0.116142800358801,-0.134158722225888
"914",-0.238889080660839,-0.0230473468428481,0.27484585917148,0.0940226779322168,-0.116207151418816
"915",-0.141134541487989,-0.023450647413494,0.110167885412576,0.0458931023579338,0.0347823005344966
"916",-0.15571563011367,-0.178110298818545,-0.319140585200285,0.277130584696879,0.133169061487954
"917",0.185984488216546,-0.20495126575968,-0.245212248934729,-0.0448165755251591,-0.260124438763537
"918",0.0971748235875372,-0.291915997751183,-0.074192239739833,-0.093217252822683,-0.0843824298196013
"919",-0.00261599917881942,-0.194473560797873,-0.0898622963554304,0.111925226365103,-0.174714619261888
"920",0.114238765944354,-0.359105071452696,-0.576915932253504,0.139218621468081,-0.0761587582195913
"921",0.00752271998829312,0.018265469914255,-0.0469156294472163,-0.0138653050991231,-0.0192962719403404
"922",-0.149364091399282,-0.0951194031503793,-0.145773613691528,-0.0476095257302408,-0.0835574070810107
"923",-0.193849669223975,0.0832567743636157,0.0746196380968573,-0.137483722890067,0.0430248082194459
"924",0.00023550243726603,0.0367021588085698,-0.0492789435227302,0.119647719617134,0.0482516633748237
"925",0.224477910193491,0.0898712564759458,0.265131670206094,0.211211150022141,0.181408304753851
"926",0.0376476602881608,-0.552282011923583,-0.279790252462903,-0.195997107510373,-0.0805809600730683
"927",0.158010393311042,-0.0724853824578352,0.00178368957789446,0.0360179038138463,-0.0341333379457424
"928",-0.194752863570732,0.0117878925499495,0.181061821009156,0.374610195525459,0.0589932727764523
"929",-0.271054646470299,-0.0893288860675515,-0.0109078484030815,0.0674020971527039,-0.0152767863729821
"930",1.03654711476065,0.189931281408846,0.0221540814453995,0.0541994268523979,-0.0142785845136992
"931",-0.0709435856496838,-0.0736421857948314,0.0400581196676723,-0.0584944781581827,-0.0332801496936081
"932",-0.921129675801884,0.0497530138767047,0.353671458703334,0.57959514506258,0.151627447794394
"933",0.136766248597142,-0.0424487444835912,0.184482756236147,-0.192962665179844,-0.0645720387366517
"934",0.1149405465515,-0.150714532933508,-0.226534950000501,0.265310947074413,-0.111999085939428
"935",0.0303278025455708,0.229922854698671,-0.05502939664441,0.00645185283314456,0.0594028075559978
"936",0.0613909399705159,-0.0290235054014569,0.0929149702609553,0.0232082975797225,0.00592650785267772
"937",0.0787283588751414,0.121672378081822,0.28047569810541,0.123294246509955,-0.0783228473018341
"938",0.292582447833409,-0.0207723511380693,0.0110305038252151,-0.252839661823266,-0.00023116200072853
"939",0.111524638795331,-0.0702277110779118,0.0453632365866792,-0.0742118564620278,-0.00266625989848287
"940",0.0269791839917317,0.282351835097684,0.450614100264737,0.230207427377173,0.112345194834534
"941",0.0379486503479135,0.0128263890363882,-0.0519735986532232,-0.0128316346197692,-0.099690791843212
"942",0.0675085444813119,-0.0350572426884246,-0.00999622673832847,-0.140711520468126,-0.116884079164608
"943",-0.137949317814506,-0.0948299953124145,-0.210109147812107,-0.108149678605189,-0.138659117262827
"944",-0.142769766247759,0.0573844199122761,0.123534932556786,0.0313278614847942,0.147812833289749
"945",-0.226502071903349,-0.00470958170347361,-0.140942905125426,0.0395437440837858,-0.016360524463707
"946",-0.10867112157161,0.193354293516281,0.0667031234235431,-0.00810916857066694,0.223499621835657
"947",0.00137278021603104,-0.162189308420125,-0.00589561589835358,0.0101392382535499,0.0164228253948734
"948",-0.0816325428697821,-0.0156058339587437,0.0736937526979644,0.228041679513337,0.0550612542519507
"949",0.0925788302791857,0.0671073285049027,0.133221399625122,-0.0624734689609659,0.092584695905347
"950",-0.0499802518689635,0.0965630844573808,-0.0068449267539801,-0.0328050297398952,0.0616121110498105
"951",0.0658468874462372,0.197518519650829,0.0548075311430145,0.160902417231653,0.0246312415745698
"952",-0.351535074718921,0.0404405450992902,0.564321285068509,0.222978439811775,0.107831943930466
"953",0.0333832722133097,-0.17546275538822,-0.522875073009663,-0.258485114677427,-0.160204801086525
"954",-0.0662738702674999,0.0441647719157589,-0.0392846105224908,0.0515007932168553,0.0356772944222495
"955",0.0348121714438177,0.0354146444804592,0.0276664948918618,-0.0690176184057332,0.0138594814429871
"956",0.0953332881198782,0.123533806520957,0.12465177573917,-0.156559850012557,0.0763356418173321
"957",0.116418011739581,-0.00185737679008356,-0.0219867566022276,-0.0873022485119513,0.0413211428469794
"958",-0.716614949059523,0.121714534019237,0.0122963803699528,-0.0295088245809399,-0.0794036350924356
"959",0.0535940195166221,0.135188078544996,0.409535455804347,-0.41881639119669,0.110232611106022
"960",0.0995929542328107,0.254387996163611,-0.0205267530671678,0.109620837257696,0.0426565241837941
"961",0.314988661657243,0.16305980586884,0.169924959717176,0.0118013048850087,0.112287077725179
"962",0.190502036015276,0.093440133110355,0.180761741816086,-0.0734702151551092,0.0847755942155293
"963",-0.0959603433587784,-0.112697839959441,0.00971630604544234,-0.293122551905464,0.175092931744951
"964",-0.131247587458684,-0.0233823522261267,-0.0966743904475078,-0.154412012494016,0.0128569474365743
"965",-0.136101746386077,0.440513905864859,-0.348206559791487,-0.0554601755051967,-0.168306968050056
"966",0.15929824866927,-0.0075551914987114,-0.037748556078048,-0.0395533183871157,-0.0500423308498596
"967",0.108224762823603,-0.119239271098848,-0.062264915547878,0.0209332246813018,0.0288459944734851
"968",0.054308679099233,0.187736723095781,0.0230011736988378,0.178801361572852,0.0342954764193273
"969",-0.129688979166277,-0.0785339869228326,-0.0666557209911791,-0.0454939339505721,-0.0956840422167677
"970",-1.27319007107583,0.213037991701097,0.809014425423489,0.603798833555566,0.0826291255067403
"971",0.117500429773718,0.0841477998163001,0.187936802856577,-0.075920956973224,0.135475133427485
"972",-0.0846387198615212,-0.233234390203941,-0.079823406895333,-0.0617458538097624,0.0499860077104243
"973",0.00381518194079848,-0.086862536160932,-0.271878373828942,-0.194547924451542,0.0102871210123104
"974",0.0504138882228317,0.0632134242984551,0.0571772799595427,-0.049044190456203,0.0514087602704582
"975",0.349492155059468,-0.0970519255574766,-0.0151185557210414,0.0249805918507069,-0.127041149891016
"976",0.241469384333433,-0.222135134291531,-0.0730598258469765,-0.0339359806088208,-0.128821290371633
"977",0.13045923217838,-0.18633258122755,-0.288184562274117,-0.0346025131889701,-0.0881475323281023
"978",-0.247500248227632,0.0283928509741996,-0.234206459731963,0.130195062896699,-0.222115779561104
"979",0.216047649377346,-0.06896005477803,-0.0906900591571335,-0.0193177349202047,-0.054812308835687
"980",0.18216598107542,-0.143531425047625,-0.0775252959607934,-0.120317950276689,0.0278311378889002
"981",0.0601319539632791,0.042165111886293,-0.097237507444795,-0.0325885808046439,-0.0333162506789
"982",0.425550254549952,0.0226181101019281,-0.285521076677149,-0.148154650779136,0.0198368718100166
"983",-0.0580266932490618,0.135975024983691,0.0487000310245033,0.285326719180877,-0.0273757631995816
"984",-0.0206940899705559,-0.245563746400989,-0.370364911177917,0.0202726396507741,-0.183005018794259
"985",-0.03819423323004,0.0686129203754725,0.140278096861151,0.0235127574107508,0.032038474260176
"986",0.378517005862397,-0.0319907879468962,-0.183300067792256,0.114781677044853,-0.131718722794158
"987",0.0761947707397843,0.167925856920781,0.0956410749822235,-0.0132370247551882,-0.0203216552288849
"988",0.295325857323836,0.0813040267399836,0.151858105423209,-0.0763291187742233,0.136159138750551
"989",-0.282764833575618,-0.407099344240212,0.142754042995407,0.187533943116713,-0.229733413947664
"990",0.142203185841828,0.173142038440257,0.0391657746677033,0.0420812437312512,0.029219094782883
"991",0.317792474613994,0.125489197285691,0.131409155108228,-0.138768397115531,-0.0914992450776042
"992",0.0721106757986958,-0.11699380882553,0.141396740356138,0.062778434140641,-0.202300318160529
"993",0.128764774058853,-0.175104370290918,0.0189757351068097,-0.20792306407396,-0.0797692606587645
